{"learner":{"attributes":{"scikit_learn":"{\"_estimator_type\": \"classifier\"}"},"feature_names":["ab_class_is_Fluoroquinolone","ab_class_is_Lincosamide","ab_class_is_Nitroimidazole","ab_class_is_Carbapenem","ab_class_is_Aminoglycoside","ab_class_is_Glycopeptide","ab_class_is_Cephalosporin","ab_class_is_Oxazolidinone","ab_class_is_Macrolide","ab_class_is_Lipopeptide","ab_class_is_Monobactam","ab_class_is_Penicillin","ab_class_is_Glycylcycline","ab_class_is_Sulfonamide","ab_class_is_Polymyxin","ab_class_is_Nitrofuran","ab_class_is_Tetracycline","is_female","admit_is_EMERGENCY","admit_is_ELECTIVE","admit_is_NEWBORN","admit_is_URGENT","mean_aspartate_aminotransferase","mean_bilirubin_total","mean_alanine_transaminase","mean_alkaline_phosphatase","mean_gamma_glutamyltransferase","median_aspartate_aminotransferase","median_bilirubin_total","median_alanine_transaminase","median_alkaline_phosphatase","median_gamma_glutamyltransferase","max_aspartate_aminotransferase","max_bilirubin_total","max_alanine_transaminase","max_alkaline_phosphatase","max_gamma_glutamyltransferase","min_aspartate_aminotransferase","min_bilirubin_total","min_alanine_transaminase","min_alkaline_phosphatase","min_gamma_glutamyltransferase","range_aspartate_aminotransferase","range_bilirubin_total","range_alanine_transaminase","range_alkaline_phosphatase","range_gamma_glutamyltransferase","sd_aspartate_aminotransferase","sd_bilirubin_total","sd_alanine_transaminase","sd_alkaline_phosphatase","sd_gamma_glutamyltransferase","iqr_aspartate_aminotransferase","iqr_bilirubin_total","iqr_alanine_transaminase","iqr_alkaline_phosphatase","iqr_gamma_glutamyltransferase","first_aspartate_aminotransferase","first_bilirubin_total","first_alanine_transaminase","first_alkaline_phosphatase","first_gamma_glutamyltransferase","last_aspartate_aminotransferase","last_bilirubin_total","last_alanine_transaminase","last_alkaline_phosphatase","last_gamma_glutamyltransferase","count_aspartate_aminotransferase","count_bilirubin_total","count_alanine_transaminase","count_alkaline_phosphatase","count_gamma_glutamyltransferase","mean_bun","mean_chloride","mean_creatinine","mean_potassium","mean_sodium","median_bun","median_chloride","median_creatinine","median_potassium","median_sodium","max_bun","max_chloride","max_creatinine","max_potassium","max_sodium","min_bun","min_chloride","min_creatinine","min_potassium","min_sodium","range_bun","range_chloride","range_creatinine","range_potassium","range_sodium","sd_bun","sd_chloride","sd_creatinine","sd_potassium","sd_sodium","iqr_bun","iqr_chloride","iqr_creatinine","iqr_potassium","iqr_sodium","first_bun","first_chloride","first_creatinine","first_potassium","first_sodium","last_bun","last_chloride","last_creatinine","last_potassium","last_sodium","count_bun","count_chloride","count_creatinine","count_potassium","count_sodium","mean_hemoglobin","mean_hematocrit","mean_platelets","mean_white_blood_cells","median_hemoglobin","median_hematocrit","median_platelets","median_white_blood_cells","max_hemoglobin","max_hematocrit","max_platelets","max_white_blood_cells","min_hemoglobin","min_hematocrit","min_platelets","min_white_blood_cells","range_hemoglobin","range_hematocrit","range_platelets","range_white_blood_cells","sd_hemoglobin","sd_hematocrit","sd_platelets","sd_white_blood_cells","iqr_hemoglobin","iqr_hematocrit","iqr_platelets","iqr_white_blood_cells","first_hemoglobin","first_hematocrit","first_platelets","first_white_blood_cells","last_hemoglobin","last_hematocrit","last_platelets","last_white_blood_cells","count_hemoglobin","count_hematocrit","count_platelets","count_white_blood_cells","age_at_admin","admin_time_since_admission","admission_time_of_day"],"feature_types":["float","float","float","float","float","float","float","float","float","float","float","float","float","float","float","float","float","float","float","float","float","float","float","float","float","float","float","float","float","float","float","float","float","float","float","float","float","float","float","float","float","float","float","float","float","float","float","float","float","float","float","float","float","float","float","float","float","float","float","float","float","float","float","float","float","float","float","float","float","float","float","float","float","float","float","float","float","float","float","float","float","float","float","float","float","float","float","float","float","float","float","float","float","float","float","float","float","float","float","float","float","float","float","float","float","float","float","float","float","float","float","float","float","float","float","float","float","float","float","float","float","float","float","float","float","float","float","float","float","float","float","float","float","float","float","float","float","float","float","float","float","float","float","float","float","float","float","float","float","float","float","float","float","float","float","float","float","float","float","float","float","float","float","float","float"],"gradient_booster":{"model":{"gbtree_model_param":{"num_parallel_tree":"1","num_trees":"100"},"iteration_indptr":[0,1,2,3,4,5,6,7,8,9,10,11,12,13,14,15,16,17,18,19,20,21,22,23,24,25,26,27,28,29,30,31,32,33,34,35,36,37,38,39,40,41,42,43,44,45,46,47,48,49,50,51,52,53,54,55,56,57,58,59,60,61,62,63,64,65,66,67,68,69,70,71,72,73,74,75,76,77,78,79,80,81,82,83,84,85,86,87,88,89,90,91,92,93,94,95,96,97,98,99,100],"tree_info":[0,0,0,0,0,0,0,0,0,0,0,0,0,0,0,0,0,0,0,0,0,0,0,0,0,0,0,0,0,0,0,0,0,0,0,0,0,0,0,0,0,0,0,0,0,0,0,0,0,0,0,0,0,0,0,0,0,0,0,0,0,0,0,0,0,0,0,0,0,0,0,0,0,0,0,0,0,0,0,0,0,0,0,0,0,0,0,0,0,0,0,0,0,0,0,0,0,0,0,0],"trees":[{"base_weights":[4.397087E-8,1.0227461E0,-2.1979581E-1,5.7773685E-1,4.734098E0,-3.4810907E-1,6.4732796E-1,-3.965013E-3,1.6650634E0,2.2079947E0,1.3861235E0,2.4402342E0,-3.935283E-1,7.152366E-2,2.355899E0,1.3959755E0,-2.038389E-1,5.880967E-1,2.7509122E0,6.977498E-1,3.8532503E-2,8.930646E-1,-1.0878488E-1,-4.4903186E-1,5.441731E-1,1.2908345E0,-5.007478E-1,2.5733513E-1,1.1890697E0,5.1709134E-2,3.896947E-1,-1.5714878E-1,1.0359704E-1,3.589159E-2,1.6115475E0,6.839275E-1,8.88043E-2,-4.956037E-2,-5.635967E-1,5.706617E-1,-2.3677132E-1,-1.4357413E-1,2.4673266E0,3.7520838E-1,-8.0112165E-1,-1.5008442E-1,3.3991858E-1,-1.5330517E-1,1.1171116E0,6.101753E-1,-3.5586235E-1,9.892459E-2,3.8336763E-1,-4.94472E-1,8.0488116E-1,-8.7031883E-1,-4.1166258E-1,-1.716457E-1,1.163631E0,2.5368872E-1,8.309987E-1,-1.8621369E-1,9.892459E-2,-7.487189E-2,1.3525724E-1,3.1976828E-1,4.2769168E-2,-1.01325564E-1,2.8011635E-1,6.0087968E-2,-1.4051549E-1,-1.300441E-1,1.9585429E-1,6.581821E-2,5.629212E-1,-1.824211E-1,6.0915053E-2,3.1309468E-1,-9.648586E-2,-1.107358E-1,4.992519E-1,-1.0878488E-1,1.9941527E-1],"categories":[],"categories_nodes":[],"categories_segments":[],"categories_sizes":[],"default_left":[0,0,0,0,0,0,0,0,0,0,0,0,0,0,0,0,0,0,0,0,0,0,0,0,0,0,0,0,0,0,0,0,0,0,0,0,0,0,0,0,0,0,0,0,0,0,0,0,0,0,0,0,0,0,0,0,0,0,0,0,0,0,0,0,0,0,0,0,0,0,0,0,0,0,0,0,0,0,0,0,0,0,0],"id":0,"left_children":[1,3,5,7,9,11,13,15,17,19,-1,21,23,25,27,29,31,33,35,-1,-1,-1,-1,37,39,41,43,45,-1,-1,-1,-1,47,49,51,-1,-1,53,55,-1,57,-1,59,-1,61,-1,-1,63,65,67,69,-1,-1,71,73,75,77,-1,79,81,-1,-1,-1,-1,-1,-1,-1,-1,-1,-1,-1,-1,-1,-1,-1,-1,-1,-1,-1,-1,-1,-1,-1],"loss_changes":[5.9578728E1,7.46957E1,2.4497768E1,2.7205414E1,1.177784E1,2.5109234E1,2.7840263E1,8.402534E0,1.5911587E1,8.974945E0,0E0,2.1737488E1,1.0054337E1,1.6224272E1,5.229015E1,1.854146E0,4.779316E0,4.914152E0,9.576832E0,0E0,0E0,0E0,0E0,8.141296E0,2.0485651E1,1.9284172E1,1.2864646E1,9.347919E0,0E0,0E0,0E0,0E0,4.875138E0,1.7328492E0,9.545183E-2,0E0,0E0,1.5938477E1,6.1017494E0,0E0,8.946576E0,0E0,1.7247232E1,0E0,2.9575033E0,0E0,0E0,3.0574784E0,1.3002439E0,3.4464445E0,1.2661593E0,0E0,0E0,6.9492717E0,1.2822279E1,2.4881783E0,1.3991241E1,0E0,8.7775755E0,2.4303572E0,0E0,0E0,0E0,0E0,0E0,0E0,0E0,0E0,0E0,0E0,0E0,0E0,0E0,0E0,0E0,0E0,0E0,0E0,0E0,0E0,0E0,0E0,0E0],"parents":[2147483647,0,0,1,1,2,2,3,3,4,4,5,5,6,6,7,7,8,8,9,9,11,11,12,12,13,13,14,14,15,15,16,16,17,17,18,18,23,23,24,24,25,25,26,26,27,27,32,32,33,33,34,34,37,37,38,38,40,40,42,42,44,44,47,47,48,48,49,49,50,50,53,53,54,54,55,55,56,56,58,58,59,59],"right_children":[2,4,6,8,10,12,14,16,18,20,-1,22,24,26,28,30,32,34,36,-1,-1,-1,-1,38,40,42,44,46,-1,-1,-1,-1,48,50,52,-1,-1,54,56,-1,58,-1,60,-1,62,-1,-1,64,66,68,70,-1,-1,72,74,76,78,-1,80,82,-1,-1,-1,-1,-1,-1,-1,-1,-1,-1,-1,-1,-1,-1,-1,-1,-1,-1,-1,-1,-1,-1,-1],"split_conditions":[2.4E1,8.350411E1,2.2E0,1.5E1,1.6E1,3.2E0,1E1,1E0,6.4928764E1,6E0,1.3861235E0,1.058E1,2.05E0,1.25E-1,6.4E0,3E0,5.3747944E1,1E0,7.803835E1,6.977498E-1,3.8532503E-2,8.930646E-1,-1.0878488E-1,4.857143E-1,3.6E0,3.1E0,1.5E1,8.6E0,1.1890697E0,5.1709134E-2,3.896947E-1,-1.5714878E-1,1.3E1,4.829315E1,5.2939728E1,6.839275E-1,8.88043E-2,1E2,9.1E1,5.706617E-1,6.921644E1,-1.4357413E-1,1E2,3.7520838E-1,1.26E1,-1.5008442E-1,3.3991858E-1,1E0,6.829863E1,1.8E1,1.7E1,9.892459E-2,3.8336763E-1,1.2E1,7.0710677E-1,1.9E0,7.1E1,-1.716457E-1,8E0,4.54E0,8.309987E-1,-1.8621369E-1,9.892459E-2,-7.487189E-2,1.3525724E-1,3.1976828E-1,4.2769168E-2,-1.01325564E-1,2.8011635E-1,6.0087968E-2,-1.4051549E-1,-1.300441E-1,1.9585429E-1,6.581821E-2,5.629212E-1,-1.824211E-1,6.0915053E-2,3.1309468E-1,-9.648586E-2,-1.107358E-1,4.992519E-1,-1.0878488E-1,1.9941527E-1],"split_indices":[163,162,89,164,164,75,96,164,162,164,0,122,147,105,85,158,162,5,162,0,0,0,0,23,115,89,62,134,0,0,0,0,164,162,162,0,0,30,65,0,162,0,108,0,126,0,0,0,162,164,164,0,0,117,100,89,60,0,52,75,0,0,0,0,0,0,0,0,0,0,0,0,0,0,0,0,0,0,0,0,0,0,0],"split_type":[0,0,0,0,0,0,0,0,0,0,0,0,0,0,0,0,0,0,0,0,0,0,0,0,0,0,0,0,0,0,0,0,0,0,0,0,0,0,0,0,0,0,0,0,0,0,0,0,0,0,0,0,0,0,0,0,0,0,0,0,0,0,0,0,0,0,0,0,0,0,0,0,0,0,0,0,0,0,0,0,0,0,0],"sum_hessian":[2.630354E2,4.588267E1,2.1715274E2,4.2002083E1,3.8805878E0,1.8968283E2,2.7469902E1,2.801231E1,1.3989774E1,2.7375252E0,1.1430625E0,2.1951168E0,1.8748772E2,2.1325031E1,6.1448708E0,2.7520866E0,2.5260223E1,7.797579E0,6.192195E0,1.22679E0,1.5107354E0,1.0120107E0,1.1831061E0,1.775023E2,9.9854145E0,6.4106145E0,1.4914416E1,4.554048E0,1.5908226E0,1.3796836E0,1.372403E0,8.194374E0,1.706585E1,5.737154E0,2.0604246E0,4.4266367E0,1.7655582E0,3.9879772E1,1.3762253E2,1.852926E0,8.132489E0,2.511825E0,3.8987894E0,1.0848172E0,1.3829599E1,2.9632256E0,1.5908226E0,1.4291921E1,2.7739286E0,2.1004682E0,3.6366858E0,1.00473E0,1.0556946E0,2.6501575E1,1.3378199E1,4.4022465E1,9.360007E1,5.9009686E0,2.23152E0,2.1841958E0,1.7145936E0,1.2824869E1,1.00473E0,1.171821E1,2.5737107E0,1.3068771E0,1.4670515E0,1.0192913E0,1.0811769E0,1.3032367E0,2.3334491E0,2.4473913E1,2.0276618E0,1.1758254E1,1.6199452E0,4.272651E1,1.2959561E0,2.5045445E0,9.109552E1,1.2304302E0,1.0010897E0,1.1831061E0,1.0010897E0],"tree_param":{"num_deleted":"0","num_feature":"165","num_nodes":"83","size_leaf_vector":"1"}},{"base_weights":[-3.560938E-3,6.859948E-1,-1.882735E-1,4.5046392E-1,2.4729345E0,-2.4104832E-1,1.2763388E0,6.084255E-1,-1.6717057E-1,3.3240817E0,-1.1190058E-1,6.0414326E-1,-3.154856E-1,-1.1722239E-1,7.232152E-1,1.5980029E-1,1.0900874E0,8.415263E-1,-6.130655E-3,5.508307E-1,1.3996895E-1,3.9477E-1,-3.3854988E-1,-1.5449178E-1,2.3231582E-1,-1.0532721E-1,7.222139E-1,7.950744E-1,5.431628E-1,-2.668414E-1,4.9762812E-1,-3.6528718E-1,3.403572E-1,4.4916582E-1,-2.5427046E-1,-1.2834077E-1,1.2049505E0,9.776363E-1,-1.3089769E-1,3.3043706E-1,-1.7242718E-1,-4.1287702E-1,7.2251886E-1,-1.3130103E-1,3.3501503E-1,-8.767631E-2,3.642535E-2,1.3459714E-2,4.1030595E-1,2.701536E-1,1.04629554E-1,-4.2733792E-2,3.5388228E-1,-1.3960905E-1,-5.1472634E-2,5.694441E-1,-1.308708E-1],"categories":[],"categories_nodes":[],"categories_segments":[],"categories_sizes":[],"default_left":[0,0,0,0,0,0,0,0,0,0,0,0,0,0,0,0,0,0,0,0,0,0,0,0,0,0,0,0,0,0,0,0,0,0,0,0,0,0,0,0,0,0,0,0,0,0,0,0,0,0,0,0,0,0,0,0,0],"id":1,"left_children":[1,3,5,7,9,11,13,15,-1,17,-1,19,21,23,-1,25,27,-1,-1,-1,29,-1,31,-1,-1,33,35,37,-1,39,-1,41,-1,43,45,-1,47,49,-1,51,-1,53,55,-1,-1,-1,-1,-1,-1,-1,-1,-1,-1,-1,-1,-1,-1],"loss_changes":[3.3861656E1,2.252674E1,1.6514004E1,1.0840928E1,1.8168552E1,1.2975836E1,2.4718964E1,9.737274E0,0E0,1.5180191E1,0E0,1.6372694E1,1.056472E1,5.621798E0,0E0,3.791974E0,8.367174E0,0E0,0E0,0E0,1.4862984E1,0E0,1.0790905E1,0E0,0E0,1.5850266E0,6.113775E0,5.930112E0,0E0,5.110608E0,0E0,9.866308E0,0E0,6.70084E0,1.2590554E0,0E0,5.966502E0,2.3722725E0,0E0,6.2484975E0,0E0,7.701462E0,2.5589725E1,0E0,0E0,0E0,0E0,0E0,0E0,0E0,0E0,0E0,0E0,0E0,0E0,0E0,0E0],"parents":[2147483647,0,0,1,1,2,2,3,3,4,4,5,5,6,6,7,7,9,9,11,11,12,12,13,13,15,15,16,16,20,20,22,22,25,25,26,26,27,27,29,29,31,31,33,33,34,34,36,36,37,37,39,39,41,41,42,42],"right_children":[2,4,6,8,10,12,14,16,-1,18,-1,20,22,24,-1,26,28,-1,-1,-1,30,-1,32,-1,-1,34,36,38,-1,40,-1,42,-1,44,46,-1,48,50,-1,52,-1,54,56,-1,-1,-1,-1,-1,-1,-1,-1,-1,-1,-1,-1,-1,-1],"split_conditions":[2.4E1,8.510959E1,6.6E0,1E0,8.788767E1,1.1E1,1.2E1,6.709863E1,-1.6717057E-1,1E0,-1.1190058E-1,1E-1,1.52E1,9.9E1,7.232152E-1,1E0,1E0,8.415263E-1,-6.130655E-3,5.508307E-1,2.125E0,3.9477E-1,6.1E0,-1.5449178E-1,2.3231582E-1,3.9424656E1,4.7468494E1,8.4095894E1,5.431628E-1,4.9E0,4.9762812E-1,1.9147203E1,3.403572E-1,1E0,1E0,-1.2834077E-1,1.4E1,7.50137E1,-1.3089769E-1,1.8E1,-1.7242718E-1,8.5E0,1.015E2,-1.3130103E-1,3.3501503E-1,-8.767631E-2,3.642535E-2,1.3459714E-2,4.1030595E-1,2.701536E-1,1.04629554E-1,-4.2733792E-2,3.5388228E-1,-1.3960905E-1,-5.1472634E-2,5.694441E-1,-1.308708E-1],"split_indices":[163,162,114,19,162,64,96,162,0,0,0,139,151,88,0,5,2,0,0,0,147,0,80,0,0,162,162,162,0,85,0,144,0,17,0,0,164,162,0,120,0,134,78,0,0,0,0,0,0,0,0,0,0,0,0,0,0],"split_type":[0,0,0,0,0,0,0,0,0,0,0,0,0,0,0,0,0,0,0,0,0,0,0,0,0,0,0,0,0,0,0,0,0,0,0,0,0,0,0,0,0,0,0,0,0,0,0,0,0,0,0,0,0,0,0,0,0],"sum_hessian":[2.6383948E2,5.5169773E1,2.0866971E2,4.9851135E1,5.3186355E0,2.0221852E2,6.451183E0,4.486825E1,4.982886E0,4.077878E0,1.2407573E0,1.5792117E1,1.864264E2,4.638415E0,1.8127676E0,2.3920345E1,2.0947906E1,3.0265315E0,1.0513464E0,1.9280642E0,1.3864054E1,1.0158314E0,1.8541057E2,3.3287632E0,1.3096517E0,1.6809092E1,7.1112533E0,1.8990793E1,1.9571122E0,1.2572317E1,1.2917364E0,1.8382266E2,1.5879105E0,3.1323066E0,1.3676785E1,1.7728789E0,5.3383746E0,1.7155722E1,1.8350732E0,6.4977894E0,6.0745273E0,1.7671222E2,7.110439E0,1.8911327E0,1.2411737E0,9.615547E0,4.0612383E0,2.7382066E0,2.600168E0,8.338121E0,8.817599E0,5.332844E0,1.1649456E0,6.112948E1,1.1558274E2,2.3760233E0,4.7344155E0],"tree_param":{"num_deleted":"0","num_feature":"165","num_nodes":"57","size_leaf_vector":"1"}},{"base_weights":[-5.1938393E-3,-2.9288024E-1,3.3836597E-1,1.2633168E0,-3.443555E-1,2.3808713E-1,1.8721025E0,5.895339E-1,4.1731052E-2,-1.4691864E-1,-7.44711E-1,-3.3128747E-1,5.5394745E-1,8.9166987E-1,7.4518543E-1,-1.2965238E-1,1.9721608E-1,-1.984919E-1,4.0166768E-1,-2.69074E-1,-8.6660516E-1,1.7539947E0,-4.9567714E-1,-4.3272677E-1,8.4343696E-1,-1.3777927E-1,1.6716764E0,1.4744469E0,-2.626119E-1,6.9503236E-1,-6.4436334E-1,-9.1720533E-1,1.1751317E-2,6.9020265E-1,-1.1126915E-1,-6.322297E-1,4.8665845E-1,-8.5046923E-1,6.4931405E-1,7.076215E-1,7.7486986E-1,5.8593243E-1,-1.1452525E-1,5.9049433E-1,-1.1557215E-1,-3.540599E-1,7.261126E-1,-1.1637955E-1,3.5664964E-1,9.90035E-2,-1.734309E-1,-5.647008E-4,-9.443889E-1,1.0718142E-1,-7.042253E-1,3.9561316E-1,-5.0523686E-1,-1.8411422E-1,-4.171865E-4,5.640711E-1,-5.43438E-1,9.569567E-1,-5.1497257E-1,-1.9930921E-2,-1.5631975E-1,5.7877964E-1,-2.3872426E-2,-1.9440196E-1,-8.007296E-2,3.7423186E-2,-1.5053128E-1,-1.3421959E-1,-5.348256E-4,-1.4082272E-1,-6.61893E-4,1.512187E-1,6.434507E-1,2.5564015E-1,-1.7862009E-1],"categories":[],"categories_nodes":[],"categories_segments":[],"categories_sizes":[],"default_left":[0,0,0,0,0,0,0,0,0,0,0,0,0,0,0,0,0,0,0,0,0,0,0,0,0,0,0,0,0,0,0,0,0,0,0,0,0,0,0,0,0,0,0,0,0,0,0,0,0,0,0,0,0,0,0,0,0,0,0,0,0,0,0,0,0,0,0,0,0,0,0,0,0,0,0,0,0,0,0],"id":2,"left_children":[1,3,5,7,9,11,13,-1,15,17,19,21,23,-1,25,-1,-1,27,-1,29,31,33,35,37,39,-1,41,43,45,47,49,51,-1,-1,-1,53,55,57,59,61,-1,-1,-1,-1,-1,63,65,-1,-1,-1,-1,-1,67,-1,69,-1,71,-1,-1,-1,73,75,77,-1,-1,-1,-1,-1,-1,-1,-1,-1,-1,-1,-1,-1,-1,-1,-1],"loss_changes":[2.6297367E1,1.2034236E1,1.8205029E1,9.857159E0,1.1031843E1,2.0859856E1,1.794263E1,0E0,3.1321032E0,1.102962E1,2.4515343E0,1.5146225E1,2.1593464E1,0E0,9.499084E0,0E0,0E0,1.0504497E1,0E0,4.3904505E0,1.7587128E0,1.4715717E1,5.590685E0,8.4716E0,2.105188E1,0E0,1.3277439E1,1.2725431E1,8.5469055E0,5.9487586E0,2.5519934E0,8.569145E-1,0E0,0E0,0E0,3.3219757E0,8.945725E0,7.755804E-1,1.5637903E1,1.772988E1,0E0,0E0,0E0,0E0,0E0,9.123307E0,1.5172533E1,0E0,0E0,0E0,0E0,0E0,1.1543846E-1,0E0,1.5831852E0,0E0,3.3351135E-1,0E0,0E0,0E0,3.7553823E-1,1.9049816E1,8.077025E0,0E0,0E0,0E0,0E0,0E0,0E0,0E0,0E0,0E0,0E0,0E0,0E0,0E0,0E0,0E0,0E0],"parents":[2147483647,0,0,1,1,2,2,3,3,4,4,5,5,6,6,8,8,9,9,10,10,11,11,12,12,14,14,17,17,19,19,20,20,21,21,22,22,23,23,24,24,26,26,27,27,28,28,29,29,30,30,31,31,35,35,36,36,37,37,38,38,39,39,45,45,46,46,52,52,54,54,56,56,60,60,61,61,62,62],"right_children":[2,4,6,8,10,12,14,-1,16,18,20,22,24,-1,26,-1,-1,28,-1,30,32,34,36,38,40,-1,42,44,46,48,50,52,-1,-1,-1,54,56,58,60,62,-1,-1,-1,-1,-1,64,66,-1,-1,-1,-1,-1,68,-1,70,-1,72,-1,-1,-1,74,76,78,-1,-1,-1,-1,-1,-1,-1,-1,-1,-1,-1,-1,-1,-1,-1,-1],"split_conditions":[6.741918E1,3.1E0,3.4E0,2.5647058E1,1.13E1,8E0,6.939452E1,5.895339E-1,9.7E0,1.88E1,5.7735026E-1,3.4307692E0,4E0,8.9166987E-1,1.4E2,-1.2965238E-1,1.9721608E-1,9.6E1,4.0166768E-1,1.35875E2,8.1E1,1.035E1,2.2E1,1.43E2,1.33E1,-1.3777927E-1,1.5E0,5.5964382E1,2.2781572E0,9.75E1,2.4E1,2.24E1,1.1751317E-2,6.9020265E-1,-1.1126915E-1,3.8E0,1.06E1,2.14E2,2.75E0,3.3333332E1,7.7486986E-1,5.8593243E-1,-1.1452525E-1,5.9049433E-1,-1.1557215E-1,3.6886394E-1,3.6E0,-1.1637955E-1,3.5664964E-1,9.90035E-2,-1.734309E-1,-5.647008E-4,1E0,1.0718142E-1,3.5E0,3.9561316E-1,1.3975E2,-1.8411422E-1,-4.171865E-4,5.640711E-1,1.05E2,1.415E2,7.5E-1,-1.9930921E-2,-1.5631975E-1,5.7877964E-1,-2.3872426E-2,-1.9440196E-1,-8.007296E-2,3.7423186E-2,-1.5053128E-1,-1.3421959E-1,-5.348256E-4,-1.4082272E-1,-6.61893E-4,1.512187E-1,6.434507E-1,2.5564015E-1,-1.7862009E-1],"split_indices":[162,115,89,22,150,93,162,0,134,43,98,75,80,0,86,0,0,83,0,76,62,126,164,111,154,0,95,162,49,73,32,151,0,0,0,85,130,30,106,22,0,0,0,0,0,100,115,0,0,0,0,0,19,0,115,0,76,0,0,0,65,81,79,0,0,0,0,0,0,0,0,0,0,0,0,0,0,0,0],"split_type":[0,0,0,0,0,0,0,0,0,0,0,0,0,0,0,0,0,0,0,0,0,0,0,0,0,0,0,0,0,0,0,0,0,0,0,0,0,0,0,0,0,0,0,0,0,0,0,0,0,0,0,0,0,0,0,0,0,0,0,0,0,0,0,0,0,0,0,0,0,0,0,0,0,0,0,0,0,0,0],"sum_hessian":[2.6406406E2,1.4379886E2,1.2026521E2,3.8504376E0,1.3994843E2,1.13968925E2,6.296289E0,1.0246451E0,2.8257926E0,9.464222E1,4.5306202E1,4.0647778E1,7.3321144E1,1.013681E0,5.282608E0,1.8139546E0,1.011838E0,9.331713E1,1.3250875E0,9.8966055E0,3.5409595E1,2.26365E0,3.838413E1,1.652019E1,5.6800957E1,2.1739993E0,3.1086087E0,2.6327074E0,9.0684425E1,2.5342379E0,7.3623676E0,3.3582092E1,1.8275042E0,1.0204049E0,1.2432449E0,3.4012516E1,4.3716125E0,1.2073137E1,4.447051E0,5.554543E1,1.2555275E0,1.7963396E0,1.3122691E0,1.2755063E0,1.3572011E0,8.359459E1,7.089834E0,1.3800907E0,1.1541471E0,1.0043107E0,6.358057E0,1.0014061E0,3.2580685E1,1.6005058E0,3.241201E1,1.3490145E0,3.0225978E0,1.1073081E1,1.0000561E0,1.0929999E0,3.3540514E0,4.6316864E1,9.228563E0,5.3181965E1,3.0412628E1,1.3094959E0,5.7803383E0,3.0257755E1,2.3229291E0,1.5227764E0,3.0889235E1,2.0204394E0,1.0021584E0,2.3510616E0,1.0029898E0,4.376239E1,2.5544734E0,1.1926047E0,8.035958E0],"tree_param":{"num_deleted":"0","num_feature":"165","num_nodes":"79","size_leaf_vector":"1"}},{"base_weights":[-4.90708E-3,-2.5390363E-1,2.506482E-1,-2.8517866E-1,3.7254542E-1,-2.039935E-1,4.7248617E-1,9.7856987E-1,-3.3725646E-1,-3.7507147E-1,1.197417E0,6.5355134E-1,-4.670331E-1,1.7637975E0,-1.2297701E-1,-1.4889845E-1,-7.359387E-1,3.411265E-1,-6.836513E-1,-5.028422E-1,7.960803E-1,3.1710464E-1,1.0963525E0,9.559858E-1,-7.701488E-1,9.195487E-3,6.486938E-1,4.574111E-1,-3.0368498E-1,-2.4491464E-1,-8.76659E-1,-4.1078505E-1,1.4944422E0,-7.7324814E-1,2.9507047E-1,-1.3375555E-1,-8.4360084E-4,6.519593E-2,2.4003768E0,3.3062148E0,8.1636256E-1,3.980945E-1,-1.03149906E-1,9.777968E-2,-1.8387893E-1,-1.6084985E-1,2.0506835E0,-6.963396E-1,-3.0676203E-2,-1.6581139E-1,3.7874308E-1,-9.3580437E-1,2.9381874E-3,1.0864569E-1,-7.111417E-1,-1.22333065E-1,2.560808E0,-8.439793E-1,9.917405E-2,1.9938204E-1,-1.04382195E-1,6.951296E-1,-2.0754325E-1,9.520895E-2,1.0586697E0,1.0908688E0,-1.0439847E-1,1.1850646E0,-6.9361734E-1,2.8405818E-1,-1.4674155E-1,-1.21058345E-1,6.594166E-1,-1.568305E-1,6.899064E-2,-2.691527E-2,3.0965233E-1,2.0801948E-1,-1.3088411E-1,-1.9335282E-1,-7.848069E-2,-1.6630845E-1,-2.6900133E-3,7.124271E-1,-2.6514854E-3,1.7987926E-2,-1.8353222E-1,-1.3068108E-1,3.220577E-1,1.4508198E-1,-1.2344956E-1,-1.2448772E-1,1.9801943E-1,2.741388E-1,-1.3147742E-1,-1.6390568E-1,-1.6859382E-3],"categories":[],"categories_nodes":[],"categories_segments":[],"categories_sizes":[],"default_left":[0,0,0,0,0,0,0,0,0,0,0,0,0,0,0,0,0,0,0,0,0,0,0,0,0,0,0,0,0,0,0,0,0,0,0,0,0,0,0,0,0,0,0,0,0,0,0,0,0,0,0,0,0,0,0,0,0,0,0,0,0,0,0,0,0,0,0,0,0,0,0,0,0,0,0,0,0,0,0,0,0,0,0,0,0,0,0,0,0,0,0,0,0,0,0,0,0],"id":3,"left_children":[1,3,5,7,-1,9,11,13,15,17,19,21,23,25,-1,27,29,31,33,35,-1,37,39,41,43,-1,-1,45,47,49,51,53,55,57,59,-1,-1,61,63,65,67,-1,-1,-1,-1,69,71,73,75,-1,77,79,-1,-1,81,-1,83,85,-1,-1,-1,87,89,91,-1,-1,-1,93,95,-1,-1,-1,-1,-1,-1,-1,-1,-1,-1,-1,-1,-1,-1,-1,-1,-1,-1,-1,-1,-1,-1,-1,-1,-1,-1,-1,-1],"loss_changes":[1.691358E1,9.44264E0,1.332706E1,9.117787E0,0E0,1.0930339E1,1.5354488E1,8.017557E0,9.576521E0,9.012056E0,2.563545E1,1.0764381E1,7.1535387E0,9.942746E0,0E0,8.47756E0,2.6274185E0,1.1565062E1,2.6917515E0,3.271705E-1,0E0,2.2824747E1,1.6975018E1,5.6834707E0,2.8582501E0,0E0,0E0,1.8523052E1,7.6307697E0,4.1573696E0,1.6787548E0,2.8015518E0,1.3243736E1,2.753704E0,2.2863266E0,0E0,0E0,7.032876E0,3.0812967E1,2.955518E1,1.727302E1,0E0,0E0,0E0,0E0,1.3934029E1,1.9329021E1,2.9432812E0,7.2876525E0,0E0,4.636058E0,1.1916733E-1,0E0,0E0,5.6369877E-1,0E0,9.441036E0,1.8036098E0,0E0,0E0,0E0,1.6286741E1,1.1437191E1,2.9487033E0,0E0,0E0,0E0,9.150192E0,5.478256E-1,0E0,0E0,0E0,0E0,0E0,0E0,0E0,0E0,0E0,0E0,0E0,0E0,0E0,0E0,0E0,0E0,0E0,0E0,0E0,0E0,0E0,0E0,0E0,0E0,0E0,0E0,0E0,0E0],"parents":[2147483647,0,0,1,1,2,2,3,3,5,5,6,6,7,7,8,8,9,9,10,10,11,11,12,12,13,13,15,15,16,16,17,17,18,18,19,19,21,21,22,22,23,23,24,24,27,27,28,28,29,29,30,30,31,31,32,32,33,33,34,34,37,37,38,38,39,39,40,40,45,45,46,46,47,47,48,48,50,50,51,51,54,54,56,56,57,57,61,61,62,62,63,63,67,67,68,68],"right_children":[2,4,6,8,-1,10,12,14,16,18,20,22,24,26,-1,28,30,32,34,36,-1,38,40,42,44,-1,-1,46,48,50,52,54,56,58,60,-1,-1,62,64,66,68,-1,-1,-1,-1,70,72,74,76,-1,78,80,-1,-1,82,-1,84,86,-1,-1,-1,88,90,92,-1,-1,-1,94,96,-1,-1,-1,-1,-1,-1,-1,-1,-1,-1,-1,-1,-1,-1,-1,-1,-1,-1,-1,-1,-1,-1,-1,-1,-1,-1,-1,-1],"split_conditions":[6.709863E1,4.7559485E0,4E-1,3.1E0,3.7254542E-1,1.45E2,5.3E1,2.906367E0,1.12E1,4.12E0,1.3E1,1.7E1,6.3E1,7.2E1,-1.2297701E-1,1.355E2,5.7735026E-1,1.2E0,1.83E2,2E1,7.960803E-1,4.8E0,6.2E1,1.05166664E2,7.0666665E-1,9.195487E-3,6.486938E-1,1.3E1,8.6E0,1E0,8.1E1,1.02E1,1E2,1.2727922E1,9.9E0,-1.3375555E-1,-8.4360084E-4,7.304384E1,1.2583058E-1,9.975E0,4.5E0,3.980945E-1,-1.03149906E-1,9.777968E-2,-1.8387893E-1,2E0,9.1E1,2.95E2,5.9E1,-1.6581139E-1,1.02066666E2,1E0,2.9381874E-3,1.0864569E-1,1.34E1,-1.22333065E-1,6E-1,2.4E1,9.917405E-2,1.9938204E-1,-1.04382195E-1,1E1,6E0,3.5285714E0,1.0586697E0,1.0908688E0,-1.0439847E-1,2E0,5E0,2.8405818E-1,-1.4674155E-1,-1.21058345E-1,6.594166E-1,-1.568305E-1,6.899064E-2,-2.691527E-2,3.0965233E-1,2.0801948E-1,-1.3088411E-1,-1.9335282E-1,-7.848069E-2,-1.6630845E-1,-2.6900133E-3,7.124271E-1,-2.6514854E-3,1.7987926E-2,-1.8353222E-1,-1.3068108E-1,3.220577E-1,1.4508198E-1,-1.2344956E-1,-1.2448772E-1,1.9801943E-1,2.741388E-1,-1.3147742E-1,-1.6390568E-1,-1.6859382E-3],"split_indices":[162,49,94,115,0,116,32,101,150,85,130,164,25,163,0,81,98,89,40,164,0,115,60,73,74,0,0,96,134,89,62,130,88,47,126,0,0,162,48,122,103,0,0,0,0,120,65,65,45,0,73,19,0,0,154,0,38,163,0,0,0,164,164,74,0,0,0,95,84,0,0,0,0,0,0,0,0,0,0,0,0,0,0,0,0,0,0,0,0,0,0,0,0,0,0,0,0],"split_type":[0,0,0,0,0,0,0,0,0,0,0,0,0,0,0,0,0,0,0,0,0,0,0,0,0,0,0,0,0,0,0,0,0,0,0,0,0,0,0,0,0,0,0,0,0,0,0,0,0,0,0,0,0,0,0,0,0,0,0,0,0,0,0,0,0,0,0,0,0,0,0,0,0,0,0,0,0,0,0,0,0,0,0,0,0,0,0,0,0,0,0,0,0,0,0,0,0],"sum_hessian":[2.6380133E2,1.3361853E2,1.301828E2,1.3252562E2,1.0929106E0,4.2717216E1,8.7465576E1,4.5409894E0,1.2798463E2,3.8722507E1,3.99471E0,7.358799E1,1.3877583E1,2.9703496E0,1.5706396E0,8.78522E1,4.0132423E1,1.1628316E1,2.7094193E1,2.988318E0,1.0063919E0,4.2790943E1,3.0797049E1,2.058729E0,1.1818853E1,1.8516984E0,1.1186512E0,1.7469166E1,7.038303E1,9.549874E0,3.0582552E1,7.4288516E0,4.199465E0,2.5014214E1,2.0799775E0,1.986118E0,1.0022E0,3.9094894E1,3.6960492E0,2.2477791E0,2.8549269E1,1.001973E0,1.0567559E0,1.0113392E0,1.0807514E1,1.3233153E1,4.236011E0,2.8230267E1,4.215277E1,4.7610974E0,4.7887764E0,2.8632757E1,1.9497949E0,1.5852045E0,5.843647E0,1.5548959E0,2.644569E0,2.4011007E1,1.003207E0,1.0003642E0,1.0796132E0,1.1344442E1,2.7750452E1,2.6318543E0,1.0641949E0,1.1677433E0,1.0800357E0,2.3119263E1,5.430007E0,3.125946E0,1.0107207E1,1.5172482E0,2.718763E0,2.6262478E1,1.9677877E0,4.0408504E1,1.7442664E0,2.9156706E0,1.8731059E0,2.6352262E1,2.2804935E0,4.8200107E0,1.0236365E0,1.6275756E0,1.0169932E0,1.7396922E0,2.2271315E1,4.7019258E0,6.642516E0,8.232762E0,1.951769E1,1.6295234E0,1.0023308E0,2.1235777E1,1.8834856E0,4.421451E0,1.0085564E0],"tree_param":{"num_deleted":"0","num_feature":"165","num_nodes":"97","size_leaf_vector":"1"}},{"base_weights":[-1.2787187E-2,4.235437E-1,-3.329059E-2,-3.3633202E-1,1.1387653E-1,4.226658E-1,-4.5887786E-1,1.7653574E-1,-1.8184192E-1,-2.9937047E-1,2.2541475E0,-5.04799E-1,2.79031E-1,2.7631056E-1,-4.0845683E-1,-7.367559E-1,7.3222125E-1,9.4120693E-1,-1.2326106E-1,5.014731E-1,-5.9501034E-1,3.7564713E-1,-7.116137E-1,-6.922162E-1,1.383667E0,-1.6998123E-1,-5.7768886E-4,3.2565334E-1,-1.0861459E-1,-2.7834803E-1,4.5771924E-1,-7.2737384E-1,-2.0699789E-1,3.0070043E-1,2.2953706E0,-8.464764E-1,9.804035E-2,9.879313E-2,-7.711989E-1,-1.2607703E-1,6.6397804E-1,1.4807214E-1,-1.5323319E-1,1.7864268E-1,-1.5633138E-1,8.8261046E-2,-1.453165E-1,3.3392873E-2,2.7102107E-1,-1.1990354E-1,7.4954957E-1,-3.76464E-4,-1.8380015E-1,9.894305E-2,-1.7158778E-1],"categories":[],"categories_nodes":[],"categories_segments":[],"categories_sizes":[],"default_left":[0,0,0,0,0,0,0,0,0,0,0,0,0,0,0,0,0,0,0,0,0,0,0,0,0,0,0,0,0,0,0,0,0,0,0,0,0,0,0,0,0,0,0,0,0,0,0,0,0,0,0,0,0,0,0],"id":4,"left_children":[1,-1,3,5,7,9,11,13,-1,15,17,19,-1,21,23,25,27,-1,-1,29,31,33,35,37,39,-1,-1,-1,-1,41,-1,43,45,47,49,51,-1,-1,53,-1,-1,-1,-1,-1,-1,-1,-1,-1,-1,-1,-1,-1,-1,-1,-1],"loss_changes":[1.1711809E1,0E0,1.1854102E1,8.27287E0,1.1640757E1,1.7330444E1,7.1121817E0,1.0011138E1,0E0,5.0137806E0,2.8790619E1,7.032139E0,0E0,1.4543517E1,1.3728626E1,6.171913E-1,4.8313828E0,0E0,0E0,9.898583E0,3.3692226E0,1.8421782E1,2.6251364E0,2.474577E0,1.6779898E1,0E0,0E0,0E0,0E0,3.309516E0,0E0,5.158581E0,6.6635103E0,1.7963642E1,2.2597944E1,7.71739E-1,0E0,0E0,2.7679253E0,0E0,0E0,0E0,0E0,0E0,0E0,0E0,0E0,0E0,0E0,0E0,0E0,0E0,0E0,0E0,0E0],"parents":[2147483647,0,0,2,2,3,3,4,4,5,5,6,6,7,7,9,9,10,10,11,11,13,13,14,14,15,15,16,16,19,19,20,20,21,21,22,22,23,23,24,24,29,29,31,31,32,32,33,33,34,34,35,35,38,38],"right_children":[2,-1,4,6,8,10,12,14,-1,16,18,20,-1,22,24,26,28,-1,-1,30,32,34,36,38,40,-1,-1,-1,-1,42,-1,44,46,48,50,52,-1,-1,54,-1,-1,-1,-1,-1,-1,-1,-1,-1,-1,-1,-1,-1,-1,-1,-1],"split_conditions":[1.88E1,4.235437E-1,9E-1,1.25E1,5.5E1,1.2E1,1.53E1,1.08E2,-1.8184192E-1,1.07333336E2,1.01E2,5E-1,2.79031E-1,1.28E1,1.36E1,1.6E1,1.6E0,9.4120693E-1,-1.2326106E-1,5.1E1,9.5E1,1.22E1,2.1E0,1.3544444E2,1.105E2,-1.6998123E-1,-5.7768886E-4,3.2565334E-1,-1.0861459E-1,2.6299557E-1,4.5771924E-1,9.5E1,2.4E0,3.9681528E0,9.9E1,9.5E-1,9.804035E-2,9.879313E-2,7.98E0,-1.2607703E-1,6.6397804E-1,1.4807214E-1,-1.5323319E-1,1.7864268E-1,-1.5633138E-1,8.8261046E-2,-1.453165E-1,3.3392873E-2,2.7102107E-1,-1.1990354E-1,7.4954957E-1,-3.76464E-4,-1.8380015E-1,9.894305E-2,-1.7158778E-1],"split_indices":[131,0,89,29,37,24,154,113,0,73,108,109,0,150,150,96,95,0,0,62,40,122,38,76,73,0,0,0,0,100,0,83,138,98,88,79,0,0,122,0,0,0,0,0,0,0,0,0,0,0,0,0,0,0,0],"split_type":[0,0,0,0,0,0,0,0,0,0,0,0,0,0,0,0,0,0,0,0,0,0,0,0,0,0,0,0,0,0,0,0,0,0,0,0,0,0,0,0,0,0,0,0,0,0,0,0,0,0,0,0,0,0,0],"sum_hessian":[2.6549747E2,1.5557292E0,2.6394174E2,8.585884E1,1.7808292E2,1.1595027E1,7.426381E1,1.6858531E2,9.497609E0,8.916402E0,2.6786256E0,7.317902E1,1.0847877E0,1.4447217E2,2.4113134E1,6.462266E0,2.4541352E0,1.0997581E0,1.5788674E0,5.6456056E0,6.753342E1,1.3183574E2,1.2636425E1,2.134688E1,2.7662542E0,5.461997E0,1.0002689E0,1.2788289E0,1.1753064E0,4.5182776E0,1.1273279E0,4.970338E1,1.7830036E1,1.279954E2,3.8403494E0,1.1627325E1,1.0091007E0,1.004653E0,2.0342226E1,1.6864454E0,1.0798087E0,1.2953995E0,3.2228782E0,1.1100085E0,4.8593372E1,7.999478E0,9.830559E0,1.1461632E2,1.3379081E1,1.4792048E0,2.3611445E0,1.0006027E0,1.0626722E1,1.0028492E0,1.9339378E1],"tree_param":{"num_deleted":"0","num_feature":"165","num_nodes":"55","size_leaf_vector":"1"}},{"base_weights":[-1.4001894E-2,1.1202881E-1,-3.2270843E-1,1.7723317E-1,-6.233161E-1,-4.113258E-1,1.1980491E0,2.9483506E-1,-3.4018424E-1,7.765198E-1,-1.8580234E-1,-4.69963E-1,7.0422024E-1,5.550665E-1,-1.2602817E-1,3.863625E-1,-6.863758E-1,1.2579093E0,-5.140048E-1,-1.1465736E-1,3.8879153E-1,3.6225387E-1,-5.465986E-1,4.98355E-1,-1.3600151E-1,9.853166E-2,-1.1771991E-1,5.321564E-1,-2.326087E-1,-8.288526E-1,7.615496E-2,4.1674605E-1,-2.3938015E-2,-7.648487E-1,5.1520467E-1,-1.59263E-1,4.520352E-1,-6.3095206E-1,2.0031717E-1,4.3336737E-1,1.9245102E0,1.16605386E-1,-6.6333437E-1,-1.8159957E-1,-8.2627975E-4,-8.8013935E-1,1.938087E-1,-5.5239344E-1,1.8440765E0,-7.341917E-1,-1.5492369E-1,3.2670394E-1,-6.3367176E-1,-1.2426289E-1,1.096911E-1,6.6396743E-1,-8.3895646E-2,-5.6830913E-2,1.0530422E-1,-1.7971578E-1,4.2553827E-2,-1.8340252E-1,-3.1373862E-2,-9.397945E-4,-1.4249803E-1,5.9761643E-1,-1.5962135E-2,-1.5340388E-1,1.5921786E-2,2.6116166E-1,-1.02602005E-1,-5.941967E-4,-1.5536003E-1],"categories":[],"categories_nodes":[],"categories_segments":[],"categories_sizes":[],"default_left":[0,0,0,0,0,0,0,0,0,0,0,0,0,0,0,0,0,0,0,0,0,0,0,0,0,0,0,0,0,0,0,0,0,0,0,0,0,0,0,0,0,0,0,0,0,0,0,0,0,0,0,0,0,0,0,0,0,0,0,0,0,0,0,0,0,0,0,0,0,0,0,0,0],"id":5,"left_children":[1,3,5,7,9,11,13,15,17,19,-1,21,23,-1,25,27,29,31,33,-1,-1,35,37,-1,-1,-1,-1,39,41,43,-1,-1,-1,45,47,-1,-1,49,51,53,55,57,59,-1,-1,61,-1,63,65,67,69,-1,71,-1,-1,-1,-1,-1,-1,-1,-1,-1,-1,-1,-1,-1,-1,-1,-1,-1,-1,-1,-1],"loss_changes":[1.0403484E1,9.218662E0,1.093806E1,1.0765186E1,7.4370656E0,5.1704082E0,9.79657E0,1.3138631E1,9.791909E0,6.4053936E0,0E0,4.7191095E0,1.1826756E1,0E0,1.2674851E0,1.2013559E1,2.2299185E0,4.253626E0,8.2432375E0,0E0,0E0,1.6265858E1,4.241232E0,0E0,0E0,0E0,0E0,1.3875603E1,3.9600642E0,7.418151E-1,0E0,0E0,0E0,5.819974E0,1.0318816E1,0E0,0E0,2.782053E0,9.863859E0,1.2618061E1,2.3614101E1,2.6311946E0,2.6040416E0,0E0,0E0,4.9147797E-1,0E0,3.828609E-1,7.17332E0,1.3475151E0,6.825907E0,0E0,4.8423457E-1,0E0,0E0,0E0,0E0,0E0,0E0,0E0,0E0,0E0,0E0,0E0,0E0,0E0,0E0,0E0,0E0,0E0,0E0,0E0,0E0],"parents":[2147483647,0,0,1,1,2,2,3,3,4,4,5,5,6,6,7,7,8,8,9,9,11,11,12,12,14,14,15,15,16,16,17,17,18,18,21,21,22,22,27,27,28,28,29,29,33,33,34,34,37,37,38,38,39,39,40,40,41,41,42,42,45,45,47,47,48,48,49,49,50,50,52,52],"right_children":[2,4,6,8,10,12,14,16,18,20,-1,22,24,-1,26,28,30,32,34,-1,-1,36,38,-1,-1,-1,-1,40,42,44,-1,-1,-1,46,48,-1,-1,50,52,54,56,58,60,-1,-1,62,-1,64,66,68,70,-1,72,-1,-1,-1,-1,-1,-1,-1,-1,-1,-1,-1,-1,-1,-1,-1,-1,-1,-1,-1,-1],"split_conditions":[1.06E1,1E0,1.135E2,3.9749214E-1,1.36E2,1.54E1,1.145E2,1.3E1,4.4190246E-1,1.05E2,-1.8580234E-1,1.34E2,1.38E1,5.550665E-1,5.7735026E-2,1E0,1.435E2,4.606037E0,2.4494898E0,-1.1465736E-1,3.8879153E-1,1.32E2,5.5E0,4.98355E-1,-1.3600151E-1,9.853166E-2,-1.1771991E-1,7.0710677E-1,2.4E1,7.75E1,7.615496E-2,4.1674605E-1,-2.3938015E-2,9E1,6.9E0,-1.59263E-1,4.520352E-1,2.8087446E-1,1.2E1,8.55E0,4.2E0,1E0,1.4147368E2,-1.8159957E-1,-8.2627975E-4,1E0,1.938087E-1,8.6554414E-1,2.46E1,1.65E1,1.38E2,3.2670394E-1,8E0,-1.2426289E-1,1.096911E-1,6.6396743E-1,-8.3895646E-2,-5.6830913E-2,1.0530422E-1,-1.7971578E-1,4.2553827E-2,-1.8340252E-1,-3.1373862E-2,-9.397945E-4,-1.4249803E-1,5.9761643E-1,-1.5962135E-2,-1.5340388E-1,1.5921786E-2,2.6116166E-1,-1.02602005E-1,-5.941967E-4,-1.5536003E-1],"split_indices":[126,19,78,99,116,154,78,112,142,108,0,86,134,0,48,0,81,50,49,0,0,91,106,0,0,0,0,100,163,128,0,0,0,136,84,0,0,99,96,126,115,17,76,0,0,2,0,142,131,52,86,0,164,0,0,0,0,0,0,0,0,0,0,0,0,0,0,0,0,0,0,0,0],"split_type":[0,0,0,0,0,0,0,0,0,0,0,0,0,0,0,0,0,0,0,0,0,0,0,0,0,0,0,0,0,0,0,0,0,0,0,0,0,0,0,0,0,0,0,0,0,0,0,0,0,0,0,0,0,0,0,0,0,0,0,0,0,0,0,0,0,0,0,0,0,0,0,0,0],"sum_hessian":[2.654679E2,1.8896092E2,7.6506966E1,1.742673E2,1.4693619E1,7.29836E1,3.5233657E0,1.4234453E2,3.192278E1,2.3575935E0,1.2336025E1,6.988871E1,3.0948913E0,1.1077399E0,2.4156258E0,1.3075401E2,1.1590505E1,2.5197308E0,2.940305E1,1.329428E0,1.0281656E0,5.578845E0,6.430986E1,1.0014832E0,2.093408E0,1.0055996E0,1.4100262E0,1.0594074E2,2.4813274E1,1.0422311E1,1.1681943E0,1.2548892E0,1.2648414E0,2.3847643E1,5.555405E0,3.8245883E0,1.7542565E0,5.7923492E1,6.38637E0,1.0014649E2,5.794256E0,1.4106005E1,1.0707269E1,9.417568E0,1.0047425E0,2.2822512E1,1.0251321E0,3.4045494E0,2.150856E0,4.715444E1,1.0769048E1,1.9965811E0,4.389789E0,9.42018E0,9.072631E1,3.3711574E0,2.4230986E0,7.2877903E0,6.818215E0,8.420585E0,2.2866838E0,2.1460554E1,1.3619581E0,1.0029126E0,2.4016366E0,1.0019284E0,1.1489276E0,4.5381306E1,1.773138E0,1.5991299E0,9.169918E0,1.0007414E0,3.3890479E0],"tree_param":{"num_deleted":"0","num_feature":"165","num_nodes":"73","size_leaf_vector":"1"}},{"base_weights":[-1.6901363E-2,-4.8046672E-1,6.0068827E-2,-9.09838E-1,5.9374E-2,-1.6761443E-1,2.5284413E-1,-2.1657178E-3,-1.9090812E-1,-2.1131025E-1,3.7241098E-1,-5.494831E-1,4.462118E-3,3.365019E-1,-7.1233547E-1,1.3358717E-1,-1.6747914E-1,4.201512E-1,-7.5106597E-1,1.4740971E0,-9.69063E-2,2.0329278E0,2.8426954E-1,-1.7872976E-1,6.8083115E-2,5.8070904E-1,-5.911394E-1,9.3107647E-1,-1.2605551E-1,1.9242786E-1,-8.532874E-1,-7.5293206E-2,5.6528306E-1,-6.072454E-1,7.269654E-2,5.3222674E-1,8.287903E-2,3.772339E-1,-7.917279E-1,1.0866979E0,-1.299809E-1,-1.4870325E-1,-3.9636224E-4,-4.133854E-1,5.053793E-1,-1.150097E-3,-8.86466E-1,-1.1107036E-1,9.9240296E-2,-8.569203E-1,1.859684E-1,-1.06276646E-1,1.090134E0,1.076932E0,2.3736142E-1,-1.7727062E-1,-6.679158E-4,-6.3343965E-2,3.742275E-1,-1.15396954E-1,-4.1785273E-3,-1.8446268E-1,-2.8726547E-3,-1.9426587E-3,-1.8494779E-1,-1.01436034E-1,2.9775727E-1,-4.151966E-2,3.651586E-1,-1.4839186E-1,4.4173446E-1,6.774926E-2,5.1219887E-1,3.0185252E-2,3.5165226E-1],"categories":[],"categories_nodes":[],"categories_segments":[],"categories_sizes":[],"default_left":[0,0,0,0,0,0,0,0,0,0,0,0,0,0,0,0,0,0,0,0,0,0,0,0,0,0,0,0,0,0,0,0,0,0,0,0,0,0,0,0,0,0,0,0,0,0,0,0,0,0,0,0,0,0,0,0,0,0,0,0,0,0,0,0,0,0,0,0,0,0,0,0,0,0,0],"id":6,"left_children":[1,3,5,7,9,11,13,-1,-1,15,-1,17,19,21,23,25,-1,27,29,31,33,35,37,-1,-1,39,41,43,-1,-1,45,47,-1,49,51,-1,-1,53,55,57,-1,-1,-1,59,-1,-1,61,-1,-1,63,65,67,69,71,73,-1,-1,-1,-1,-1,-1,-1,-1,-1,-1,-1,-1,-1,-1,-1,-1,-1,-1,-1,-1],"loss_changes":[9.541587E0,8.879491E0,1.0116932E1,8.444061E-1,9.082208E0,6.9572077E0,1.0308006E1,0E0,0E0,3.6488314E0,0E0,6.743456E0,1.1160021E1,9.649831E0,2.263885E0,4.04513E0,0E0,3.9687161E0,5.6517286E0,1.0340284E1,6.113366E0,2.2375526E0,1.1616102E1,0E0,0E0,5.4196644E0,4.343264E-1,1.1006283E1,0E0,0E0,7.418041E-1,1.160805E0,0E0,3.644452E0,9.861973E0,0E0,0E0,1.0003009E1,6.923628E-1,6.9099083E0,0E0,0E0,0E0,2.0494062E-1,0E0,0E0,7.856369E-1,0E0,0E0,7.702875E-1,5.3015842E0,9.467622E0,1.8228268E1,1.7953821E1,1.1387201E1,0E0,0E0,0E0,0E0,0E0,0E0,0E0,0E0,0E0,0E0,0E0,0E0,0E0,0E0,0E0,0E0,0E0,0E0,0E0,0E0],"parents":[2147483647,0,0,1,1,2,2,3,3,4,4,5,5,6,6,9,9,11,11,12,12,13,13,14,14,15,15,17,17,18,18,19,19,20,20,21,21,22,22,25,25,26,26,27,27,30,30,31,31,33,33,34,34,37,37,38,38,39,39,43,43,46,46,49,49,50,50,51,51,52,52,53,53,54,54],"right_children":[2,4,6,8,10,12,14,-1,-1,16,-1,18,20,22,24,26,-1,28,30,32,34,36,38,-1,-1,40,42,44,-1,-1,46,48,-1,50,52,-1,-1,54,56,58,-1,-1,-1,60,-1,-1,62,-1,-1,64,66,68,70,72,74,-1,-1,-1,-1,-1,-1,-1,-1,-1,-1,-1,-1,-1,-1,-1,-1,-1,-1,-1,-1],"split_conditions":[4.690685E1,1E0,1.6E1,7.923077E0,1.7E1,1.1E0,1.73E2,-2.1657178E-3,-1.9090812E-1,9.4E1,3.7241098E-1,2.4E1,1E1,4.829315E1,4.9E0,4.0164383E1,-1.6747914E-1,1.7E0,4.3E1,1.7043363E-1,3.4E0,4.1E0,9.2E1,-1.7872976E-1,6.8083115E-2,9.961832E-1,1.4E2,1.2E0,-1.2605551E-1,1.9242786E-1,1E0,9E0,5.6528306E-1,1.5E1,4.75E0,5.3222674E-1,8.287903E-2,9E0,6.8E1,8E-1,-1.299809E-1,-1.4870325E-1,-3.9636224E-4,7.50137E1,5.053793E-1,-1.150097E-3,9.8657656E-1,-1.1107036E-1,9.9240296E-2,8.738629E-2,2.8E0,1.21E1,9.2E1,7E-1,1.38E2,-1.7727062E-1,-6.679158E-4,-6.3343965E-2,3.742275E-1,-1.15396954E-1,-4.1785273E-3,-1.8446268E-1,-2.8726547E-3,-1.9426587E-3,-1.8494779E-1,-1.01436034E-1,2.9775727E-1,-4.151966E-2,3.651586E-1,-1.4839186E-1,4.4173446E-1,6.774926E-2,5.1219887E-1,3.0185252E-2,3.5165226E-1],"split_indices":[162,17,164,72,24,95,40,0,0,65,0,163,112,162,80,162,0,84,152,99,90,80,132,0,0,142,116,89,0,0,140,72,0,59,103,0,0,154,62,146,0,0,0,162,0,0,48,0,0,99,94,134,60,38,40,0,0,0,0,0,0,0,0,0,0,0,0,0,0,0,0,0,0,0,0],"split_type":[0,0,0,0,0,0,0,0,0,0,0,0,0,0,0,0,0,0,0,0,0,0,0,0,0,0,0,0,0,0,0,0,0,0,0,0,0,0,0,0,0,0,0,0,0,0,0,0,0,0,0,0,0,0,0,0,0,0,0,0,0,0,0,0,0,0,0,0,0,0,0,0,0,0,0],"sum_hessian":[2.6560693E2,3.7074936E1,2.2853201E2,2.026859E1,1.6806343E1,1.0483907E2,1.2369293E2,1.0189444E0,1.9249647E1,1.5379753E1,1.4265898E0,3.1885714E1,7.295336E1,1.1442629E2,9.26664E0,1.0424013E1,4.9557405E0,5.3013597E0,2.6584352E1,3.8334978E0,6.9119865E1,2.2852151E0,1.12141075E2,8.034076E0,1.2325637E0,6.569601E0,3.8544123E0,3.6430259E0,1.658334E0,1.0232155E0,2.5561138E1,2.2266653E0,1.6068324E0,1.6597422E1,5.2522446E1,1.1822002E0,1.1030151E0,1.03820564E2,8.320511E0,4.738307E0,1.8312938E0,2.8542135E0,1.000199E0,2.3793802E0,1.2636456E0,1.00715E0,2.4553988E1,1.2254921E0,1.0011733E0,1.2562796E1,4.0346265E0,4.5427097E1,7.0953465E0,1.6180391E1,8.7640175E1,7.3179274E0,1.0025835E0,1.9126639E0,2.8256433E0,1.3476137E0,1.0317664E0,2.3529255E1,1.0247325E0,1.015845E0,1.154695E1,3.032126E0,1.0025007E0,4.4011593E1,1.415506E0,2.817361E0,4.277985E0,1.1625848E1,4.554543E0,8.396741E1,3.6727662E0],"tree_param":{"num_deleted":"0","num_feature":"165","num_nodes":"75","size_leaf_vector":"1"}},{"base_weights":[-1.782602E-2,1.6695537E-2,-1.8128729E-1,-1.3915809E-2,1.1188613E0,-2.1075834E-1,1.5519479E-1,2.0744853E0,-1.379565E-1,8.704038E-1,-2.5492713E-1,-1.9419202E-1,3.1960008E-1,-3.1476896E-2,3.0068283E0,-1.2560679E-1,1.8678033E0,-8.7822735E-2,-5.835876E-1,3.2455334E-1,-6.324111E-1,1.736978E-1,1.0414982E0,7.757216E-1,1.5386735E-1,6.523991E-1,-1.0169516E-1,1.1494465E0,-1.7425855E-1,-7.8259057E-1,3.5004783E-1,8.036758E-2,3.8381815E-1,1.594824E-1,-7.43075E-1,3.0815965E-1,-7.2025526E-1,2.6888134E0,1.4050668E-1,-7.546287E-2,4.8772764E-1,1.9913018E-1,-5.095879E-2,-1.6803081E-1,8.2632765E-2,-1.4872475E-1,2.3811571E-1,-1.0493491E-1,6.9324516E-2,4.144205E-2,-1.717509E-1,4.294026E-2,3.0706167E-1,-5.642233E-3,-1.7728695E-1,8.613607E-1,4.5285195E-2,-5.51937E-2,3.2546386E-1],"categories":[],"categories_nodes":[],"categories_segments":[],"categories_sizes":[],"default_left":[0,0,0,0,0,0,0,0,0,0,0,0,0,0,0,0,0,0,0,0,0,0,0,0,0,0,0,0,0,0,0,0,0,0,0,0,0,0,0,0,0,0,0,0,0,0,0,0,0,0,0,0,0,0,0,0,0,0,0],"id":7,"left_children":[1,3,-1,5,7,9,11,13,-1,15,17,19,21,-1,23,-1,25,27,29,31,33,35,37,-1,-1,-1,-1,39,41,43,45,47,-1,-1,49,51,53,55,57,-1,-1,-1,-1,-1,-1,-1,-1,-1,-1,-1,-1,-1,-1,-1,-1,-1,-1,-1,-1],"loss_changes":[8.179532E0,8.692393E0,0E0,8.395177E0,1.3464014E1,5.785798E0,7.8569117E0,1.0471287E1,0E0,8.346267E0,6.1390266E0,1.0217613E1,9.578367E0,0E0,3.723692E0,0E0,1.2038909E1,8.317252E0,7.299718E0,7.9561853E0,4.4239893E0,9.6313E0,2.2446795E1,0E0,0E0,0E0,0E0,1.0934217E1,7.019664E0,2.5139122E0,7.6280403E0,3.2599804E0,0E0,0E0,2.7054873E0,7.5545096E0,1.1864829E0,2.0467571E1,7.2581315E0,0E0,0E0,0E0,0E0,0E0,0E0,0E0,0E0,0E0,0E0,0E0,0E0,0E0,0E0,0E0,0E0,0E0,0E0,0E0,0E0],"parents":[2147483647,0,0,1,1,3,3,4,4,5,5,6,6,7,7,9,9,10,10,11,11,12,12,14,14,16,16,17,17,18,18,19,19,20,20,21,21,22,22,27,27,28,28,29,29,30,30,31,31,34,34,35,35,36,36,37,37,38,38],"right_children":[2,4,-1,6,8,10,12,14,-1,16,18,20,22,-1,24,-1,26,28,30,32,34,36,38,-1,-1,-1,-1,40,42,44,46,48,-1,-1,50,52,54,56,58,-1,-1,-1,-1,-1,-1,-1,-1,-1,-1,-1,-1,-1,-1,-1,-1,-1,-1,-1,-1],"split_conditions":[5.45981E0,4.939747E0,-1.8128729E-1,6.709863E1,1.51E2,8.7E0,8E0,5.75E-1,-1.379565E-1,5.3347946E1,1.2E0,1.2583058E-1,4.3169494E0,-3.1476896E-2,2.1E0,-1.2560679E-1,6.012877E1,3E-1,1.7511901E0,1.3301244E0,3E-1,1.07E1,4.4E0,7.757216E-1,1.5386735E-1,6.523991E-1,-1.0169516E-1,8E-1,3.1E0,6E1,2.5E1,1E2,3.8381815E-1,1.594824E-1,3.5E0,1.39E2,2.9277003E0,6.207206E-1,1.2766666E1,-7.546287E-2,4.8772764E-1,1.9913018E-1,-5.095879E-2,-1.6803081E-1,8.2632765E-2,-1.4872475E-1,2.3811571E-1,-1.0493491E-1,6.9324516E-2,4.144205E-2,-1.717509E-1,4.294026E-2,3.0706167E-1,-5.642233E-3,-1.7728695E-1,8.613607E-1,4.5285195E-2,-5.51937E-2,3.2546386E-1],"split_indices":[101,101,0,162,35,130,93,105,0,162,114,100,75,0,95,0,162,63,49,101,33,154,80,0,0,0,0,114,115,42,62,88,0,0,115,91,98,100,122,0,0,0,0,0,0,0,0,0,0,0,0,0,0,0,0,0,0,0,0],"split_type":[0,0,0,0,0,0,0,0,0,0,0,0,0,0,0,0,0,0,0,0,0,0,0,0,0,0,0,0,0,0,0,0,0,0,0,0,0,0,0,0,0,0,0,0,0,0,0,0,0,0,0,0,0,0,0,0,0,0,0],"sum_hessian":[2.6514755E2,2.5617657E2,8.970973E0,2.5021454E2,5.962037E0,1.15512825E2,1.347017E2,3.8047545E0,2.1572828E0,3.7996159E0,1.1171321E2,4.304443E1,9.165727E1,1.3659935E0,2.438761E0,1.666415E0,2.1332011E0,7.489881E1,3.6814396E1,1.982995E1,2.321448E1,7.7279076E1,1.4378202E1,1.2271655E0,1.2115954E0,1.109507E0,1.023694E0,4.0877156E0,7.08111E1,3.0479515E1,6.3348823E0,1.8107403E1,1.7225467E0,1.2218579E0,2.199262E1,6.77447E1,9.534374E0,4.3820534E0,9.996149E0,2.1952524E0,1.8924631E0,3.8287842E0,6.6982315E1,2.9363354E1,1.1161622E0,2.803001E0,3.5318816E0,5.2367525E0,1.2870651E1,2.300793E0,1.9691828E1,6.404227E1,3.7024314E0,2.0726633E0,7.4617114E0,2.1924188E0,2.1896346E0,8.444989E0,1.55116E0],"tree_param":{"num_deleted":"0","num_feature":"165","num_nodes":"59","size_leaf_vector":"1"}},{"base_weights":[-1.5885001E-2,1.7650435E-2,-8.17318E-1,-1.2946237E-2,1.1824358E0,-1.8024647E-1,-8.8807306E-4,9.532609E-2,-2.8978908E-1,-4.9519426E-1,2.6683984E0,1.8264699E-1,-4.3800884E-1,8.286323E-1,-4.177752E-1,-1.5677505E-3,-1.3217948E-1,6.470929E-1,1.4067456E-1,1.180072E0,1.2045144E-1,-6.6199255E-1,1.1279979E0,1.3674788E-1,4.4013363E-1,-4.8441768E-1,2.952896E-1,-4.5650247E-1,1.9316273E0,8.436686E-2,4.3584752E-1,-8.2189447E-1,2.2416134E-1,3.585279E-1,-1.9288315E-2,9.1203314E-1,-1.4328302E-1,2.3084505E-1,-5.463412E-1,-1.2531064E-1,-8.947663E-4,8.554903E-2,6.358936E-1,3.7553336E-2,-1.0691927E-1,1.5059865E-2,-1.9051062E-1,3.798147E-1,-4.7495026E-2,-1.24068275E-1,8.585117E-2],"categories":[],"categories_nodes":[],"categories_segments":[],"categories_sizes":[],"default_left":[0,0,0,0,0,0,0,0,0,0,0,0,0,0,0,0,0,0,0,0,0,0,0,0,0,0,0,0,0,0,0,0,0,0,0,0,0,0,0,0,0,0,0,0,0,0,0,0,0,0,0],"id":8,"left_children":[1,3,5,7,9,-1,-1,11,13,15,17,19,21,23,25,-1,-1,-1,-1,27,29,31,33,35,-1,37,-1,39,41,43,-1,45,-1,-1,-1,47,-1,-1,49,-1,-1,-1,-1,-1,-1,-1,-1,-1,-1,-1,-1],"loss_changes":[7.1246314E0,9.099769E0,7.222204E-1,7.502348E0,1.7613243E1,0E0,0E0,8.463485E0,1.0417129E1,3.1083184E-1,1.7604313E0,9.497743E0,9.7334385E0,6.875348E0,8.768609E0,0E0,0E0,0E0,0E0,1.1960555E1,1.0765516E1,7.4906664E0,3.082901E0,4.682708E0,0E0,6.9604607E0,0E0,2.7726346E-1,1.0582371E1,9.437281E0,0E0,2.6184683E0,0E0,0E0,0E0,4.5712576E0,0E0,0E0,4.6548653E0,0E0,0E0,0E0,0E0,0E0,0E0,0E0,0E0,0E0,0E0,0E0,0E0],"parents":[2147483647,0,0,1,1,2,2,3,3,4,4,7,7,8,8,9,9,10,10,11,11,12,12,13,13,14,14,19,19,20,20,21,21,22,22,23,23,25,25,27,27,28,28,29,29,31,31,35,35,38,38],"right_children":[2,4,6,8,10,-1,-1,12,14,16,18,20,22,24,26,-1,-1,-1,-1,28,30,32,34,36,-1,38,-1,40,42,44,-1,46,-1,-1,-1,48,-1,-1,50,-1,-1,-1,-1,-1,-1,-1,-1,-1,-1,-1,-1],"split_conditions":[1.37E1,1.36E1,1.75E-1,1.05E2,4.38E0,-1.8024647E-1,-8.8807306E-4,1.1114923E0,1E1,7.4E1,2.2997584E0,3E-1,1E0,1.35E2,1.49E1,-1.5677505E-3,-1.3217948E-1,6.470929E-1,1.4067456E-1,2E1,1.65E0,9E0,3E0,3.95E0,4.4013363E-1,1.44E1,2.952896E-1,9.885715E0,1.8E1,3.3333332E1,4.3584752E-1,9.5E1,2.2416134E-1,3.585279E-1,-1.9288315E-2,7.5E1,-1.4328302E-1,2.3084505E-1,6.3071037E1,-1.2531064E-1,-8.947663E-4,8.554903E-2,6.358936E-1,3.7553336E-2,-1.0691927E-1,1.5059865E-2,-1.9051062E-1,3.798147E-1,-4.7495026E-2,-1.24068275E-1,8.585117E-2],"split_indices":[126,154,53,78,75,0,0,142,24,65,101,63,3,65,150,0,0,0,0,27,146,106,67,75,0,151,0,122,164,22,0,113,0,0,0,25,0,0,50,0,0,0,0,0,0,0,0,0,0,0,0],"split_type":[0,0,0,0,0,0,0,0,0,0,0,0,0,0,0,0,0,0,0,0,0,0,0,0,0,0,0,0,0,0,0,0,0,0,0,0,0,0,0,0,0,0,0,0,0,0,0,0,0,0,0],"sum_hessian":[2.6355194E2,2.5390541E2,9.646528E0,2.483701E2,5.5353193E0,8.645363E0,1.0011655E0,1.7901398E2,6.935612E1,2.9131584E0,2.6221611E0,1.543933E2,2.462069E1,6.5596323E0,6.2796482E1,1.0049044E0,1.908254E0,1.533189E0,1.0889721E0,8.0073E0,1.4638599E2,2.204491E1,2.5757785E0,5.0916862E0,1.4679463E0,6.1381237E1,1.4152455E0,2.6434834E0,5.3638167E0,1.4488751E2,1.4984816E0,2.0725039E1,1.3198726E0,1.3687526E0,1.2070259E0,2.6314425E0,2.4602437E0,1.592787E0,5.978845E1,1.6403142E0,1.0031692E0,3.0412853E0,2.3225312E0,1.2474508E2,2.0142433E1,2.6883862E0,1.8036652E1,1.0649416E0,1.5665008E0,5.591163E1,3.8768194E0],"tree_param":{"num_deleted":"0","num_feature":"165","num_nodes":"51","size_leaf_vector":"1"}},{"base_weights":[-1.0988883E-2,1.7549431E-2,-1.7700158E-1,4.6613928E-2,-7.818736E-1,1.9915346E-2,9.511814E-1,-1.7585301E-1,-5.577873E-4,-8.009725E-3,8.781318E-1,-4.4844383E-1,1.8634999E0,4.9009558E-2,-5.575391E-1,1.4511834E0,-1.2898174E-1,-1.4206134E-3,-1.2326435E-1,8.845423E-2,4.3135658E-1,-1.9906661E-3,1.8403699E0,-7.2189415E-1,2.9004273E-1,2.24492E0,1.691263E-1,-7.26885E-2,1.5139385E-2,6.147146E-1,-1.2857434E-1,-1.7011379E-1,9.9890314E-2,5.9476376E-1,1.0894316E-1,1.8768577E-1,-1.1417215E-1],"categories":[],"categories_nodes":[],"categories_segments":[],"categories_sizes":[],"default_left":[0,0,0,0,0,0,0,0,0,0,0,0,0,0,0,0,0,0,0,0,0,0,0,0,0,0,0,0,0,0,0,0,0,0,0,0,0],"id":9,"left_children":[1,3,-1,5,7,9,11,-1,-1,13,15,17,19,21,23,25,-1,-1,-1,-1,-1,27,29,31,-1,33,35,-1,-1,-1,-1,-1,-1,-1,-1,-1,-1],"loss_changes":[6.5483794E0,5.9522634E0,0E0,5.937132E0,6.7954826E-1,5.7725353E0,9.83662E0,0E0,0E0,7.3588715E0,7.5604844E0,2.6143688E-1,9.0571785E-1,1.9454681E1,8.33182E0,5.545701E0,0E0,0E0,0E0,0E0,0E0,5.8685255E0,2.0027607E1,3.7366953E0,0E0,2.7359447E0,2.418861E0,0E0,0E0,0E0,0E0,0E0,0E0,0E0,0E0,0E0,0E0],"parents":[2147483647,0,0,1,1,3,3,4,4,5,5,6,6,9,9,10,10,11,11,12,12,13,13,14,14,15,15,21,21,22,22,23,23,25,25,26,26],"right_children":[2,4,-1,6,8,10,12,-1,-1,14,16,18,20,22,24,26,-1,-1,-1,-1,-1,28,30,32,-1,34,36,-1,-1,-1,-1,-1,-1,-1,-1,-1,-1],"split_conditions":[5.45981E0,1.37E1,-1.7700158E-1,1.36E1,1.7E0,4.939747E0,4.38E0,-1.7585301E-1,-5.577873E-4,3E0,1.51E2,8.1E1,1.39E2,2.4E0,7.1E0,3.9E0,-1.2898174E-1,-1.4206134E-3,-1.2326435E-1,8.845423E-2,4.3135658E-1,2.7E1,5E1,2.2E1,2.9004273E-1,1.32E2,1.1E1,-7.26885E-2,1.5139385E-2,6.147146E-1,-1.2857434E-1,-1.7011379E-1,9.9890314E-2,5.9476376E-1,1.0894316E-1,1.8768577E-1,-1.1417215E-1],"split_indices":[101,126,0,154,23,101,75,0,0,33,35,35,111,33,114,115,0,0,0,0,0,32,32,159,0,91,130,0,0,0,0,0,0,0,0,0,0],"split_type":[0,0,0,0,0,0,0,0,0,0,0,0,0,0,0,0,0,0,0,0,0,0,0,0,0,0,0,0,0,0,0,0,0,0,0,0,0],"sum_hessian":[2.6091077E2,2.5360988E2,7.3009033E0,2.4562154E2,7.988333E0,2.3957251E2,6.049038E0,6.986394E0,1.0019393E0,2.3298228E2,6.5902257E0,2.5876598E0,3.4613783E0,2.1190572E2,2.1076567E1,4.822802E0,1.7674235E0,1.0002843E0,1.5873754E0,1.0211173E0,2.440261E0,2.0701097E2,4.8947363E0,2.007377E1,1.0027962E0,2.5148184E0,2.3079836E0,3.5971333E1,1.7103964E2,3.1117053E0,1.783031E0,1.843512E1,1.6386504E0,1.2358847E0,1.2789339E0,1.0000972E0,1.3078866E0],"tree_param":{"num_deleted":"0","num_feature":"165","num_nodes":"37","size_leaf_vector":"1"}},{"base_weights":[-9.809031E-3,3.3095684E-2,-4.9931973E-1,1.0562146E-2,1.5479133E0,-8.8507867E-1,7.5168705E-1,4.944658E-2,-6.8737406E-1,5.5904704E-1,-1.0832353E-1,-1.8832642E-1,-7.0882455E-4,-1.2965168E-1,1.6109365E0,9.331418E-2,-5.532032E-1,-1.8223506E-1,8.424048E-2,4.7168132E-2,4.4918963E-1,1.2936163E-1,-7.7133536E-1,-7.889912E-1,1.9016494E-1,7.6784775E-2,7.538902E-1,-1.7446645E-1,-3.7431563E-4,-1.8501836E-1,7.625683E-2,-7.157373E-2,3.4063414E-2,3.2144275E-1,-2.5040496E-2],"categories":[],"categories_nodes":[],"categories_segments":[],"categories_sizes":[],"default_left":[0,0,0,0,0,0,0,0,0,0,0,0,0,0,0,0,0,0,0,0,0,0,0,0,0,0,0,0,0,0,0,0,0,0,0],"id":10,"left_children":[1,3,5,7,9,11,13,15,17,-1,-1,-1,-1,-1,19,21,23,-1,-1,-1,-1,25,27,29,-1,31,33,-1,-1,-1,-1,-1,-1,-1,-1],"loss_changes":[5.479803E0,8.179369E0,1.0811471E1,6.4819202E0,1.0668397E1,8.2067966E-1,7.65532E0,6.0259395E0,3.511232E0,0E0,0E0,0E0,0E0,0E0,2.6946602E0,6.692119E0,6.239145E0,0E0,0E0,0E0,0E0,6.637273E0,6.673641E-1,2.5709114E0,0E0,7.751872E0,1.1992997E1,0E0,0E0,0E0,0E0,0E0,0E0,0E0,0E0],"parents":[2147483647,0,0,1,1,2,2,3,3,4,4,5,5,6,6,7,7,8,8,14,14,15,15,16,16,21,21,22,22,23,23,25,25,26,26],"right_children":[2,4,6,8,10,12,14,16,18,-1,-1,-1,-1,-1,20,22,24,-1,-1,-1,-1,26,28,30,-1,32,34,-1,-1,-1,-1,-1,-1,-1,-1],"split_conditions":[5.5075707E0,5.3166404E0,9.25E-1,1.37E1,7.25E0,2.42E1,2.3E0,1E0,4.157609E0,5.5904704E-1,-1.0832353E-1,-1.8832642E-1,-7.0882455E-4,-1.2965168E-1,6E-1,5.8E1,1.33E1,-1.8223506E-1,8.424048E-2,4.7168132E-2,4.4918963E-1,4.9E1,9.6E1,1.09E2,1.9016494E-1,5.2939728E1,9E-1,-1.7446645E-1,-3.7431563E-4,-1.8501836E-1,7.625683E-2,-7.157373E-2,3.4063414E-2,3.2144275E-1,-2.5040496E-2],"split_indices":[98,98,105,150,103,135,79,19,98,0,0,0,0,0,58,37,130,0,0,0,0,62,32,40,0,162,63,0,0,0,0,0,0,0,0],"split_type":[0,0,0,0,0,0,0,0,0,0,0,0,0,0,0,0,0,0,0,0,0,0,0,0,0,0,0,0,0,0,0,0,0,0,0],"sum_hessian":[2.5912738E2,2.3910284E2,2.0024536E1,2.3659044E2,2.512408E0,1.5528647E1,4.495888E0,2.2498491E2,1.1605532E1,1.3617772E0,1.1506307E0,1.4528426E1,1.0002215E0,1.8033329E0,2.6925552E0,2.10507E2,1.4477896E1,9.804293E0,1.8012395E0,1.2838398E0,1.4087155E0,2.0289851E2,7.6085014E0,1.2926768E1,1.5511277E0,1.881793E2,1.4719205E1,6.607533E0,1.0009682E0,1.1767716E1,1.159052E0,3.282275E1,1.5535655E2,7.048782E0,7.670423E0],"tree_param":{"num_deleted":"0","num_feature":"165","num_nodes":"35","size_leaf_vector":"1"}},{"base_weights":[-1.1341582E-2,2.8310937E-1,-2.471703E-2,-5.415723E-1,2.140695E-2,-7.018325E-1,1.3762018E-1,3.498305E-1,5.427853E-3,8.8141784E-2,-7.89962E-1,-7.282043E-1,4.006467E-2,-8.905135E-1,5.747211E-2,5.5118157E-3,-1.7867701E-1,-4.8573464E-1,8.620761E-2,-1.8917792E-1,-1.0168412E-3,4.0492457E-1,-7.8233206E-1,7.629309E-1,6.150642E-3,-9.809422E-2,3.3827657E-1,-1.8572421E-1,1.1314698E-1,2.1110295E-1,-1.5329759E-1,-7.0065665E-3,1.5861303E-1],"categories":[],"categories_nodes":[],"categories_segments":[],"categories_sizes":[],"default_left":[0,0,0,0,0,0,0,0,0,0,0,0,0,0,0,0,0,0,0,0,0,0,0,0,0,0,0,0,0,0,0,0,0],"id":11,"left_children":[1,-1,3,5,7,9,-1,-1,11,-1,13,15,17,19,-1,-1,-1,21,23,-1,-1,25,27,29,31,-1,-1,-1,-1,-1,-1,-1,-1],"loss_changes":[4.9908166E0,0E0,6.1678643E0,4.659807E0,6.5623794E0,2.2860937E0,0E0,0E0,6.0480943E0,0E0,2.2302828E0,1.3642602E0,5.5525985E0,8.245239E-1,0E0,0E0,0E0,5.197384E0,1.1353895E1,0E0,0E0,6.905122E0,3.3258934E0,1.0730159E1,6.136287E0,0E0,0E0,0E0,0E0,0E0,0E0,0E0,0E0],"parents":[2147483647,0,0,2,2,3,3,4,4,5,5,8,8,10,10,11,11,12,12,13,13,17,17,18,18,21,21,22,22,23,23,24,24],"right_children":[2,-1,4,6,8,10,-1,-1,12,-1,14,16,18,20,-1,-1,-1,22,24,-1,-1,26,28,30,32,-1,-1,-1,-1,-1,-1,-1,-1],"split_conditions":[7.1E0,2.8310937E-1,8.5E0,2.41E1,8.7E0,7.6666665E0,1.3762018E-1,3.498305E-1,1.31E2,8.8141784E-2,7E0,9E0,6.1E1,8.4095894E1,5.747211E-2,5.5118157E-3,-1.7867701E-1,3.7071428E0,7.5E1,-1.8917792E-1,-1.0168412E-3,2.6958963E-1,5.4E0,4.823553E0,2.3E1,-9.809422E-2,3.3827657E-1,-1.8572421E-1,1.1314698E-1,2.1110295E-1,-1.5329759E-1,-7.0065665E-3,1.5861303E-1],"split_indices":[130,0,150,135,130,72,0,0,116,0,84,164,25,162,0,0,0,75,60,0,0,99,80,98,164,0,0,0,0,0,0,0,0],"split_type":[0,0,0,0,0,0,0,0,0,0,0,0,0,0,0,0,0,0,0,0,0,0,0,0,0,0,0,0,0,0,0,0,0],"sum_hessian":[2.5866776E2,1.4286448E0,2.572391E2,2.0195137E1,2.3704398E2,1.8246386E1,1.9487526E0,1.1782681E0,2.358657E2,1.0201477E0,1.7226236E1,9.731057E0,2.2613464E2,1.5914285E1,1.3119524E0,1.8948E0,7.836257E0,1.7475412E1,2.0865923E2,1.49133005E1,1.0009842E0,4.274421E0,1.3200992E1,2.1170942E1,1.874883E2,2.885093E0,1.3893281E0,1.2189376E1,1.0116159E0,1.8031338E1,3.1396053E0,1.7907198E2,8.41632E0],"tree_param":{"num_deleted":"0","num_feature":"165","num_nodes":"33","size_leaf_vector":"1"}},{"base_weights":[-1.0447773E-2,1.1049495E-2,-1.6988534E-1,3.2654144E-2,-1.6916601E-1,7.80824E-3,8.578271E-1,4.303345E-2,-1.7897825E-1,-8.557437E-2,4.7091338E-1,9.3184695E-2,-5.0197226E-1,2.1272711E-1,-1.506964E-1,1.8591358E-1,-1.7976232E-1,2.4121685E-1,-6.827433E-1,3.135673E-2,3.401841E-1,-6.1728306E-2,1.2863593E-1,-1.6515017E-1,7.153138E-2],"categories":[],"categories_nodes":[],"categories_segments":[],"categories_sizes":[],"default_left":[0,0,0,0,0,0,0,0,0,0,0,0,0,0,0,0,0,0,0,0,0,0,0,0,0],"id":12,"left_children":[1,3,-1,5,-1,7,9,11,-1,13,-1,15,17,-1,-1,19,21,-1,23,-1,-1,-1,-1,-1,-1],"loss_changes":[4.6676927E0,4.707902E0,0E0,5.068851E0,0E0,7.712415E0,1.04062E1,6.421449E0,0E0,4.944631E0,0E0,5.4602947E0,6.9399414E0,0E0,0E0,6.8180737E0,6.019131E0,0E0,3.0556087E0,0E0,0E0,0E0,0E0,0E0,0E0],"parents":[2147483647,0,0,1,1,3,3,5,5,6,6,7,7,9,9,11,11,12,12,15,15,16,16,18,18],"right_children":[2,4,-1,6,-1,8,10,12,-1,14,-1,16,18,-1,-1,20,22,-1,24,-1,-1,-1,-1,-1,-1],"split_conditions":[5.45981E0,9.4E1,-1.6988534E-1,8.4E1,-1.6916601E-1,5.3E1,2.395E1,2.38E1,-1.7897825E-1,9.268087E-2,4.7091338E-1,1.06E1,4.6923077E-1,2.1272711E-1,-1.506964E-1,1.18E1,1.435E2,2.4121685E-1,2.14E2,3.135673E-2,3.401841E-1,-6.1728306E-2,1.2863593E-1,-1.6515017E-1,7.153138E-2],"split_indices":[101,156,0,124,0,136,127,127,0,99,0,126,74,0,0,154,76,0,60,0,0,0,0,0,0],"split_type":[0,0,0,0,0,0,0,0,0,0,0,0,0,0,0,0,0,0,0,0,0,0,0,0,0],"sum_hessian":[2.572818E2,2.518163E2,5.4654927E0,2.465616E2,5.2547073E0,2.403346E2,6.226996E0,2.3222502E2,8.109574E0,4.397843E0,1.8291532E0,2.134156E2,1.8809412E1,1.3987123E0,2.9991305E0,1.5953522E2,5.3880386E1,1.2573324E0,1.755208E1,1.5760828E2,1.9269408E0,4.7125168E1,6.755219E0,1.5612402E1,1.9396781E0],"tree_param":{"num_deleted":"0","num_feature":"165","num_nodes":"25","size_leaf_vector":"1"}},{"base_weights":[-1.0086166E-2,-6.7877275E-1,1.4426809E-2,-1.7671649E-1,9.8181225E-2,1.0257215E0,-2.3268016E-2,-8.940045E-2,1.9078622E0,-4.0978986E-1,3.722749E-2,1.10856555E-1,-1.4361764E-1,6.3524574E-1,7.372809E-1,-6.035409E-1,1.3966066E0,1.2272846E0,-7.11856E-3,4.1843176E-1,-1.2748127E-1,-8.059568E-1,3.0579692E-1,1.04364134E-1,3.4649348E-1,-1.4230429E-1,2.2872396E0,3.4653902E-2,-6.1956406E-1,-8.8031465E-1,9.078101E-2,1.1757858E0,-4.9980322E-1,7.2283614E-1,6.7421883E-1,1.0414244E-2,1.452681E0,-8.2509017E-1,8.457064E-2,-1.265689E-3,-1.8361898E-1,3.0530626E-1,5.9168536E-2,-1.7960182E-3,-1.3277422E-1,-1.2150381E-1,3.887468E-1,-1.4417696E-1,1.0544655E-2,4.4472727E-1,-7.7521387E-3,-1.8110034E-1,-7.512547E-4],"categories":[],"categories_nodes":[],"categories_segments":[],"categories_sizes":[],"default_left":[0,0,0,0,0,0,0,0,0,0,0,0,0,0,0,0,0,0,0,0,0,0,0,0,0,0,0,0,0,0,0,0,0,0,0,0,0,0,0,0,0,0,0,0,0,0,0,0,0,0,0,0,0],"id":13,"left_children":[1,3,5,-1,-1,7,9,11,13,15,17,-1,-1,-1,19,21,23,25,27,-1,-1,29,31,-1,-1,-1,33,35,37,39,-1,41,43,-1,45,47,49,51,-1,-1,-1,-1,-1,-1,-1,-1,-1,-1,-1,-1,-1,-1,-1],"loss_changes":[4.2305145E0,2.6200795E0,9.529926E0,0E0,0E0,9.007173E0,5.659524E0,2.390178E0,5.171299E0,1.2305222E1,1.1072075E1,0E0,0E0,0E0,8.660494E0,5.8192034E0,1.1670828E-1,1.7116146E1,5.217397E0,0E0,0E0,2.7452316E0,4.959137E0,0E0,0E0,0E0,8.500948E0,6.552662E0,3.138557E0,7.861099E-1,0E0,5.6598425E-1,3.1133556E-1,0E0,6.934227E0,5.881837E0,3.770423E0,7.373142E-1,0E0,0E0,0E0,0E0,0E0,0E0,0E0,0E0,0E0,0E0,0E0,0E0,0E0,0E0,0E0],"parents":[2147483647,0,0,1,1,2,2,5,5,6,6,7,7,8,8,9,9,10,10,14,14,15,15,16,16,17,17,18,18,21,21,22,22,26,26,27,27,28,28,29,29,31,31,32,32,34,34,35,35,36,36,37,37],"right_children":[2,4,6,-1,-1,8,10,12,14,16,18,-1,-1,-1,20,22,24,26,28,-1,-1,30,32,-1,-1,-1,34,36,38,40,-1,42,44,-1,46,48,50,52,-1,-1,-1,-1,-1,-1,-1,-1,-1,-1,-1,-1,-1,-1,-1],"split_conditions":[9.3E1,1.075E0,9.5E1,-1.7671649E-1,9.8181225E-2,3.7E0,9.9E1,9.25E-1,3.9E0,2.3E1,1.01E2,1.10856555E-1,-1.4361764E-1,6.3524574E-1,9.4E0,8.25E-1,4.2875E0,1.2E0,5.45E1,4.1843176E-1,-1.2748127E-1,6.72E2,3.5E1,1.04364134E-1,3.4649348E-1,-1.4230429E-1,9.3E0,6.9E1,6.4E0,9E0,9.078101E-2,1.3E0,2E0,7.2283614E-1,1.24E1,4.6E1,2.0474375E1,8.8E1,8.457064E-2,-1.265689E-3,-1.8361898E-1,3.0530626E-1,5.9168536E-2,-1.7960182E-3,-1.3277422E-1,-1.2150381E-1,3.887468E-1,-1.4417696E-1,1.0544655E-2,4.4472727E-1,-7.7521387E-3,-1.8110034E-1,-7.512547E-4],"split_indices":[113,147,113,0,0,90,108,146,90,67,83,0,0,0,154,105,75,89,27,0,0,163,32,0,0,0,154,62,63,34,0,109,138,0,150,136,47,152,0,0,0,0,0,0,0,0,0,0,0,0,0,0,0],"split_type":[0,0,0,0,0,0,0,0,0,0,0,0,0,0,0,0,0,0,0,0,0,0,0,0,0,0,0,0,0,0,0,0,0,0,0,0,0,0,0,0,0,0,0,0,0,0,0,0,0,0,0,0,0],"sum_hessian":[2.5649457E2,8.126354E0,2.4836823E2,7.1236105E0,1.0027436E0,7.9830823E0,2.4038513E2,3.92284E0,4.060242E0,3.175028E1,2.0863486E2,1.9967812E0,1.9260589E0,1.1263859E0,2.9338562E0,2.9276066E1,2.474215E0,6.5369196E0,2.0209795E2,1.2147223E0,1.7191341E0,2.4038792E1,5.237274E0,1.3948522E0,1.079363E0,2.4267607E0,4.110159E0,1.9007697E2,1.2020973E1,2.2983547E1,1.0552435E0,2.2970805E0,2.9401934E0,1.5743784E0,2.5357804E0,1.8787282E2,2.2041411E0,1.0215365E1,1.8056082E0,1.0007298E0,2.1982819E1,1.1170269E0,1.1800536E0,1.0008372E0,1.9393562E0,1.5212948E0,1.0144857E0,9.397706E0,1.7847511E2,1.1294008E0,1.0747403E0,9.21109E0,1.0042752E0],"tree_param":{"num_deleted":"0","num_feature":"165","num_nodes":"53","size_leaf_vector":"1"}},{"base_weights":[-5.498667E-3,1.2273823E-2,-1.642025E-1,2.9835306E-2,-1.6258402E-1,7.414445E-3,7.040263E-1,4.294194E-2,-5.4408264E-1,1.0761259E0,-1.18357204E-1,-1.6773386E-1,6.663235E-2,-8.324182E-1,4.8138314E-1,-1.0118615E-1,1.4581538E0,1.425381E0,4.5913845E-2,-1.8190971E-1,-2.8005063E-3,-1.01097E-1,2.0288782E-1,1.9223046E0,4.200485E-2,5.117825E-1,-1.029348E-1,-1.671755E-1,1.4042892E-2,4.999872E-1,1.0226492E-1],"categories":[],"categories_nodes":[],"categories_segments":[],"categories_sizes":[],"default_left":[0,0,0,0,0,0,0,0,0,0,0,0,0,0,0,0,0,0,0,0,0,0,0,0,0,0,0,0,0,0,0],"id":14,"left_children":[1,3,-1,5,-1,7,9,11,13,15,-1,-1,17,19,21,-1,23,25,27,-1,-1,-1,-1,29,-1,-1,-1,-1,-1,-1,-1],"loss_changes":[3.7058685E0,3.6549797E0,0E0,3.7175846E0,0E0,4.71336E0,4.453767E0,4.7720327E0,4.7057786E0,4.6692224E0,0E0,0E0,6.151042E0,7.277765E-1,2.5270643E0,0E0,2.7809362E0,8.5374155E0,4.741608E0,0E0,0E0,0E0,0E0,1.8876419E0,0E0,0E0,0E0,0E0,0E0,0E0,0E0],"parents":[2147483647,0,0,1,1,3,3,5,5,6,6,7,7,8,8,9,9,12,12,13,13,14,14,16,16,17,17,18,18,23,23],"right_children":[2,4,-1,6,-1,8,10,12,14,16,-1,-1,18,20,22,-1,24,26,28,-1,-1,-1,-1,30,-1,-1,-1,-1,-1,-1,-1],"split_conditions":[9.4E1,5.45981E0,-1.642025E-1,4.939747E0,-1.6258402E-1,1E0,1.51E2,9.3E1,6.5E-1,1.75E-1,-1.18357204E-1,-1.6773386E-1,9.5E1,1.27E1,1.06E2,-1.0118615E-1,1.14E2,2E1,1.32E2,-1.8190971E-1,-2.8005063E-3,-1.01097E-1,2.0288782E-1,1.6E1,4.200485E-2,5.117825E-1,-1.029348E-1,-1.671755E-1,1.4042892E-2,4.999872E-1,1.0226492E-1],"split_indices":[156,101,0,101,0,19,35,78,105,104,0,0,83,150,108,0,83,164,81,0,0,0,0,164,0,0,0,0,0,0,0],"split_type":[0,0,0,0,0,0,0,0,0,0,0,0,0,0,0,0,0,0,0,0,0,0,0,0,0,0,0,0,0,0,0],"sum_hessian":[2.539928E2,2.4953954E2,4.4532647E0,2.4528334E2,4.256188E0,2.383672E2,6.9161305E0,2.2480724E2,1.3559968E1,5.504903E0,1.4112276E0,4.982646E0,2.198246E2,1.0730946E1,2.829023E0,1.0076573E0,4.497246E0,2.2833273E0,2.1754128E2,9.704964E0,1.025982E0,1.0103127E0,1.8187103E0,2.8844402E0,1.6128054E0,1.2398944E0,1.0434328E0,4.9385824E0,2.1260269E2,1.4990015E0,1.3854387E0],"tree_param":{"num_deleted":"0","num_feature":"165","num_nodes":"31","size_leaf_vector":"1"}},{"base_weights":[-7.158361E-3,1.6532687E-2,-6.000562E-1,-2.7392042E-1,7.504306E-2,-1.7671926E-1,1.0261579E-1,1.1424987E0,-4.1902947E-1,9.128124E-1,2.4646774E-2,3.4911215E-1,-2.4744691E-2,-5.284226E-1,2.5701964E-1,-7.0174076E-2,1.6473693E0,-4.86441E-1,8.5120484E-2,2.948784E-1,-6.059731E-1,-5.859625E-1,2.181112E-1,1.9956001E0,5.1704444E-2,4.5004252E-1,-7.1729237E-1,9.515597E-1,4.0518787E-2,2.829526E-1,-1.2965125E-1,-6.8008065E-2,-7.7406114E-1,-1.48113E-1,-6.4889214E-4,5.1260125E-2,4.9191913E-1,-1.1946817E-1,1.0892695E0,-1.860696E-1,-5.98138E-3,-1.3272353E-1,1.5280429E0,9.218434E-2,-6.06368E-1,-1.1087861E-1,3.0485377E-1,-7.165458E-3,-1.8246673E-1,-1.8486522E-2,3.5697356E-1,1.7947109E-1,-1.4120074E-1,5.540177E-1,5.8248486E-2,1.4506675E-3,1.13435484E-1,8.498813E-2,-1.6362116E-1],"categories":[],"categories_nodes":[],"categories_segments":[],"categories_sizes":[],"default_left":[0,0,0,0,0,0,0,0,0,0,0,0,0,0,0,0,0,0,0,0,0,0,0,0,0,0,0,0,0,0,0,0,0,0,0,0,0,0,0,0,0,0,0,0,0,0,0,0,0,0,0,0,0,0,0,0,0,0,0],"id":15,"left_children":[1,3,5,7,9,-1,-1,11,13,15,17,-1,-1,19,-1,21,23,25,27,29,31,33,-1,35,-1,37,39,41,43,-1,-1,45,47,-1,-1,-1,-1,-1,49,-1,51,-1,53,55,57,-1,-1,-1,-1,-1,-1,-1,-1,-1,-1,-1,-1,-1,-1],"loss_changes":[3.5888066E0,4.2007694E0,3.5516493E0,8.999678E0,8.654522E0,0E0,0E0,3.362709E0,7.8257475E0,8.515817E0,6.0647345E0,0E0,0E0,2.5239706E0,0E0,4.1920314E0,2.7240257E0,4.8127084E0,6.7286963E0,4.967475E0,3.0125751E0,4.2636096E-1,0E0,3.5720215E0,0E0,3.8118646E0,2.577858E0,8.955204E0,5.656924E0,0E0,0E0,7.9439425E0,2.5939207E0,0E0,0E0,0E0,0E0,0E0,2.866276E0,0E0,3.7545657E0,0E0,9.313578E0,6.2915783E0,3.0830832E0,0E0,0E0,0E0,0E0,0E0,0E0,0E0,0E0,0E0,0E0,0E0,0E0,0E0,0E0],"parents":[2147483647,0,0,1,1,2,2,3,3,4,4,7,7,8,8,9,9,10,10,13,13,15,15,16,16,17,17,18,18,19,19,20,20,21,21,23,23,25,25,26,26,27,27,28,28,31,31,32,32,38,38,40,40,42,42,43,43,44,44],"right_children":[2,4,6,8,10,-1,-1,12,14,16,18,-1,-1,20,-1,22,24,26,28,30,32,34,-1,36,-1,38,40,42,44,-1,-1,46,48,-1,-1,-1,-1,-1,50,-1,52,-1,54,56,58,-1,-1,-1,-1,-1,-1,-1,-1,-1,-1,-1,-1,-1,-1],"split_conditions":[2.4709134E0,8.9E1,1.42E2,2.09E1,7.3E1,-1.7671926E-1,1.0261579E-1,3.65E0,8.660822E1,4.2875E0,7.6E0,3.4911215E-1,-2.4744691E-2,3E0,2.5701964E-1,8.8E1,9.25E1,9E0,8.833333E0,4E0,1.36E2,1.4075E2,2.181112E-1,8E1,5.1704444E-2,6.280274E1,1.1E0,3E0,1.2E0,2.829526E-1,-1.2965125E-1,1.05166664E2,1.05E1,-1.48113E-1,-6.4889214E-4,5.1260125E-2,4.9191913E-1,-1.1946817E-1,1.6E1,-1.860696E-1,3.2E1,-1.3272353E-1,3.8E0,9.2710507E-1,3.1E1,-1.1087861E-1,3.0485377E-1,-7.165458E-3,-1.8246673E-1,-1.8486522E-2,3.5697356E-1,1.7947109E-1,-1.4120074E-1,5.540177E-1,5.8248486E-2,1.4506675E-3,1.13435484E-1,8.498813E-2,-1.6362116E-1],"split_indices":[97,35,81,155,60,0,0,80,162,75,134,0,0,164,0,57,25,39,122,158,116,76,0,30,0,162,38,159,38,0,0,73,24,0,0,0,0,0,93,0,62,0,90,142,57,0,0,0,0,0,0,0,0,0,0,0,0,0,0],"split_type":[0,0,0,0,0,0,0,0,0,0,0,0,0,0,0,0,0,0,0,0,0,0,0,0,0,0,0,0,0,0,0,0,0,0,0,0,0,0,0,0,0,0,0,0,0,0,0,0,0,0,0,0,0,0,0,0,0,0,0],"sum_hessian":[2.537908E2,2.4497423E2,8.81658E0,4.045731E1,2.045169E2,7.191066E0,1.6255144E0,3.1208735E0,3.7336437E1,1.0633689E1,1.9388322E2,1.8575991E0,1.2632742E0,3.573257E1,1.6038656E0,4.934624E0,5.6990643E0,1.9768427E1,1.7411479E2,2.8348215E0,3.2897747E1,3.7592993E0,1.1753252E0,4.207281E0,1.4917829E0,3.7216208E0,1.6046806E1,7.5285945E0,1.665862E2,1.0673629E0,1.7674587E0,8.16626E0,2.473149E1,2.7569616E0,1.0023377E0,1.2129364E0,2.994345E0,1.4353325E0,2.2862883E0,1.2111248E1,3.935558E0,1.9405258E0,5.5880685E0,1.5505942E2,1.152679E1,6.754745E0,1.411515E0,4.100125E0,2.0631363E1,1.1684351E0,1.1178533E0,1.5951793E0,2.3403788E0,2.169573E0,3.4184954E0,1.324008E2,2.2658617E1,1.7919312E0,9.7348585E0],"tree_param":{"num_deleted":"0","num_feature":"165","num_nodes":"59","size_leaf_vector":"1"}},{"base_weights":[-5.502302E-3,-3.2471254E-1,3.5139665E-2,-8.5912216E-1,1.7085223E-1,6.227803E-2,-6.554084E-1,-8.974231E-4,-1.8506138E-1,3.9768004E-1,-1.4418934E-1,2.2591036E-2,8.974487E-1,9.776015E-2,-1.7446041E-1,-2.6826272E-2,1.2875569E0,7.0623666E-2,-4.901278E-1,1.9217342E0,8.8309966E-2,7.0957977E-1,-4.3215087E-1,-1.0641911E-1,5.410853E-1,9.455658E-2,-1.6194312E-1,-8.4440285E-1,2.1776964E-1,2.3718948E0,5.1798046E-2,-1.401084E-1,6.804953E-1,-1.0947689E-1,2.945166E-1,-6.538414E-1,6.216181E-2,-1.0615025E-1,7.8472376E-2,5.2403472E-2,1.0538383E0,-1.838156E-1,-1.3144619E-3,1.0488906E0,-1.4840434E-1,8.98945E-2,6.267443E-1,3.0459303E-1,-6.164092E-2,-5.66654E-4,-1.5835556E-1,2.209316E-2,-6.736434E-2,-8.466807E-2,3.5867912E-1,-1.8707626E-2,3.123543E-1],"categories":[],"categories_nodes":[],"categories_segments":[],"categories_sizes":[],"default_left":[0,0,0,0,0,0,0,0,0,0,0,0,0,0,0,0,0,0,0,0,0,0,0,0,0,0,0,0,0,0,0,0,0,0,0,0,0,0,0,0,0,0,0,0,0,0,0,0,0,0,0,0,0,0,0,0,0],"id":16,"left_children":[1,3,5,7,9,11,13,-1,-1,15,-1,17,19,-1,-1,21,23,25,27,29,31,33,35,37,-1,39,-1,41,43,45,-1,-1,47,-1,-1,49,-1,-1,-1,51,53,-1,-1,55,-1,-1,-1,-1,-1,-1,-1,-1,-1,-1,-1,-1,-1],"loss_changes":[3.281634E0,7.7122936E0,4.248134E0,7.826872E-1,3.4537327E0,7.169949E0,2.554744E0,0E0,0E0,4.993031E0,0E0,5.159904E0,7.964826E0,0E0,0E0,3.2515876E0,8.707191E0,4.1041756E0,4.6862135E0,2.5918608E0,3.5278952E0,4.528352E0,1.3537326E0,8.6650044E-1,0E0,7.5063667E0,0E0,7.553587E-1,6.1889887E0,3.3487282E0,0E0,0E0,3.999494E0,0E0,0E0,5.097921E-1,0E0,0E0,0E0,4.109136E0,9.301076E0,0E0,0E0,2.518753E0,0E0,0E0,0E0,0E0,0E0,0E0,0E0,0E0,0E0,0E0,0E0,0E0,0E0],"parents":[2147483647,0,0,1,1,2,2,3,3,4,4,5,5,6,6,9,9,11,11,12,12,15,15,16,16,17,17,18,18,19,19,20,20,21,21,22,22,23,23,25,25,27,27,28,28,29,29,32,32,35,35,39,39,40,40,43,43],"right_children":[2,4,6,8,10,12,14,-1,-1,16,-1,18,20,-1,-1,22,24,26,28,30,32,34,36,38,-1,40,-1,42,44,46,-1,-1,48,-1,-1,50,-1,-1,-1,52,54,-1,-1,56,-1,-1,-1,-1,-1,-1,-1,-1,-1,-1,-1,-1,-1],"split_conditions":[4.690685E1,1E0,2.0474375E1,8.35E0,1.1039673E0,1.6228827E1,6.086956E-1,-8.974231E-4,-1.8506138E-1,9.574271E-2,-1.4418934E-1,2.3E0,1.75E-1,9.776015E-2,-1.7446041E-1,9E0,9.6E0,1.37E1,6E0,4.8E1,1.0649797E0,3.5589043E1,2.1E1,1.2E1,5.410853E-1,1.42E1,-1.6194312E-1,5.05E1,1E1,3.9E0,5.1798046E-2,-1.401084E-1,1.39E2,-1.0947689E-1,2.945166E-1,2.0615529E-1,6.216181E-2,-1.0615025E-1,7.8472376E-2,1.0021771E0,4E0,-1.838156E-1,-1.3144619E-3,7E0,-1.4840434E-1,8.98945E-2,6.267443E-1,3.0459303E-1,-6.164092E-2,-5.66654E-4,-1.5835556E-1,2.209316E-2,-6.736434E-2,-8.466807E-2,3.5867912E-1,-1.8707626E-2,3.123543E-1],"split_indices":[162,17,47,126,142,47,74,0,0,48,0,95,53,0,0,164,154,126,70,27,48,162,164,72,0,130,0,27,68,80,0,0,35,0,0,142,0,0,0,142,75,0,0,103,0,0,0,0,0,0,0,0,0,0,0,0,0],"split_type":[0,0,0,0,0,0,0,0,0,0,0,0,0,0,0,0,0,0,0,0,0,0,0,0,0,0,0,0,0,0,0,0,0,0,0,0,0,0,0,0,0,0,0,0,0,0,0,0,0,0,0,0,0,0,0,0,0],"sum_hessian":[2.5107277E2,2.756693E1,2.2350584E2,1.2910653E1,1.4656278E1,2.1592967E2,7.576167E0,1.0047138E0,1.1905939E1,1.2126093E1,2.530185E0,2.071147E2,8.814962E0,1.0075034E0,6.5686636E0,8.866349E0,3.259744E0,1.9016216E2,1.6952553E1,3.2834363E0,5.5315256E0,2.8811471E0,5.9852014E0,2.1101239E0,1.14962E0,1.859982E2,4.163959E0,1.1169714E1,5.7828383E0,2.2482622E0,1.0351743E0,2.293444E0,3.2380817E0,1.1950407E0,1.6861066E0,4.7021008E0,1.283101E0,1.1055193E0,1.0046046E0,1.7917926E2,6.8189335E0,1.01666E1,1.0031145E0,3.0494063E0,2.7334323E0,1.0893494E0,1.1589127E0,1.4565694E0,1.7815123E0,1.0005274E0,3.7015731E0,1.5654326E2,2.2636011E1,2.4176128E0,4.4013205E0,1.1981595E0,1.8512467E0],"tree_param":{"num_deleted":"0","num_feature":"165","num_nodes":"57","size_leaf_vector":"1"}},{"base_weights":[-6.13223E-3,1.0014464E-2,-1.6164152E-1,-3.3904772E-2,5.137189E-1,-4.387845E-3,-5.8682895E-1,7.5560963E-1,-1.4797024E-1,-7.492153E-2,2.4400268E-1,-7.1522504E-1,2.6061324E-2,9.316132E-1,-1.2640676E-1,-6.4229206E-3,-4.9861592E-1,4.1190076E-1,-5.7112205E-1,-2.7565613E-2,-7.861022E-1,-1.16929784E-1,1.1198927E0,-4.1700336E-1,7.103462E-2,4.9418554E-1,-7.913352E-1,-1.382864E-4,7.922423E-1,7.65893E-2,-1.7217195E-1,-1.7465308E-1,-4.344855E-2,1.2934778E0,-1.0806061E-1,-1.6231738E-1,5.9379388E-2,5.5875117E-3,2.4393646E-1,3.1825683E-1,-6.161974E-2,-1.8801396E-1,-5.7589044E-3,-5.2511062E-2,2.1938772E-1,-1.8612979E-2,2.71723E-1,2.9586127E-1,-4.731224E-2],"categories":[],"categories_nodes":[],"categories_segments":[],"categories_sizes":[],"default_left":[0,0,0,0,0,0,0,0,0,0,0,0,0,0,0,0,0,0,0,0,0,0,0,0,0,0,0,0,0,0,0,0,0,0,0,0,0,0,0,0,0,0,0,0,0,0,0,0,0],"id":17,"left_children":[1,3,-1,5,7,9,11,13,-1,15,17,19,-1,21,-1,23,25,27,29,-1,31,-1,33,35,37,39,41,43,45,-1,-1,-1,-1,47,-1,-1,-1,-1,-1,-1,-1,-1,-1,-1,-1,-1,-1,-1,-1],"loss_changes":[3.253624E0,5.4737916E0,0E0,3.7153103E0,6.5759177E0,3.8247569E0,1.1555004E0,4.7719803E0,0E0,4.9300413E0,6.8435254E0,2.98409E-1,0E0,5.1094646E0,0E0,4.7153144E0,7.2620454E0,6.3658338E0,2.7252312E0,0E0,2.3868895E-1,0E0,4.7979145E0,6.869121E0,6.1443033E0,5.770703E0,2.08745E0,6.1889734E0,1.0717515E1,0E0,0E0,0E0,0E0,4.0950375E0,0E0,0E0,0E0,0E0,0E0,0E0,0E0,0E0,0E0,0E0,0E0,0E0,0E0,0E0,0E0],"parents":[2147483647,0,0,1,1,3,3,4,4,5,5,6,6,7,7,9,9,10,10,11,11,13,13,15,15,16,16,17,17,18,18,20,20,22,22,23,23,24,24,25,25,26,26,27,27,28,28,33,33],"right_children":[2,4,-1,6,8,10,12,14,-1,16,18,20,-1,22,-1,24,26,28,30,-1,32,-1,34,36,38,40,42,44,46,-1,-1,-1,-1,48,-1,-1,-1,-1,-1,-1,-1,-1,-1,-1,-1,-1,-1,-1,-1],"split_conditions":[8.788767E1,8.537808E1,-1.6164152E-1,8.392329E1,1.4075E2,1.41E2,1E0,1E0,-1.4797024E-1,1.38875E2,8E-1,5E0,2.6061324E-2,1.3E0,-1.2640676E-1,3.4E0,4.12E0,2.7E0,2.44E1,-2.7565613E-2,8.510959E1,-1.16929784E-1,1E0,1.15E1,8.4E1,5.6528767E1,7.822192E1,1.4E2,1.05E1,7.65893E-2,-1.7217195E-1,-1.7465308E-1,-4.344855E-2,2.25E-1,-1.0806061E-1,-1.6231738E-1,5.9379388E-2,5.5875117E-3,2.4393646E-1,3.1825683E-1,-6.161974E-2,-1.8801396E-1,-5.7589044E-3,-5.2511062E-2,2.1938772E-1,-1.8612979E-2,2.71723E-1,2.9586127E-1,-4.731224E-2],"split_indices":[162,162,0,162,76,111,2,2,0,76,38,164,0,84,0,90,85,138,131,0,162,0,6,52,124,162,162,30,150,0,0,0,0,104,0,0,0,0,0,0,0,0,0,0,0,0,0,0,0],"split_type":[0,0,0,0,0,0,0,0,0,0,0,0,0,0,0,0,0,0,0,0,0,0,0,0,0,0,0,0,0,0,0,0,0,0,0,0,0,0,0,0,0,0,0,0,0,0,0,0,0],"sum_hessian":[2.4960333E2,2.4564572E2,3.957615E0,2.268029E2,1.884282E1,2.1626585E2,1.0537054E1,1.6127974E1,2.714844E0,1.6898013E2,4.7285713E1,8.939236E0,1.5978183E0,1.46042595E1,1.5237144E0,1.46337E2,2.2643126E1,3.9619606E1,7.6661043E0,1.2992846E0,7.6399508E0,1.3806137E0,1.3223646E1,2.2529718E1,1.238073E2,4.9992294E0,1.7643896E1,1.9497179E1,2.0122429E1,1.7108375E0,5.955267E0,6.1608424E0,1.4791086E0,1.217188E1,1.0517666E0,1.442176E1,8.10796E0,1.2031733E2,3.4899628E0,1.696237E0,3.3029923E0,1.4569318E1,3.0745778E0,1.6347572E1,3.1496058E0,8.176803E0,1.1945625E1,1.0883232E1,1.2886479E0],"tree_param":{"num_deleted":"0","num_feature":"165","num_nodes":"49","size_leaf_vector":"1"}},{"base_weights":[-1.2359294E-2,1.2567758E-2,-5.0051534E-1,-1.9494794E-2,5.6627613E-1,1.541676E-1,-7.66202E-1,4.43186E-2,-3.1583616E-1,-1.4540268E-1,1.3586537E0,-1.8028E-1,5.2026797E-2,5.83418E-1,-6.798171E-3,-5.028788E-1,3.049237E-1,7.395234E-1,-6.813699E-1,2.1733975E0,-1.8076365E-1,9.928771E-1,-1.5493475E-1,-1.0304708E-1,2.9159507E-1,-5.831269E-1,1.800627E-1,9.123349E-1,-1.5294966E-1,-1.13743626E-1,3.5433578E-1,-2.6392255E-2,-1.5534483E-1,3.7815955E-2,5.864349E-1,-1.06814146E-1,5.6168478E-2,-5.9182167E-2,1.5056173E0,-7.329816E-1,-2.592895E-5,-5.467998E-1,4.820641E-1,8.099591E-2,-6.352738E-1,-1.1154603E-1,1.3414617E0,1.2015518E-1,-1.372836E-1,2.8096689E-2,4.6614215E-1,-1.7623979E-1,5.1448144E-2,-1.9512566E-2,9.981646E-2,-1.7191003E-1,9.469194E-2,2.5920723E-2,2.136389E-1,4.0324718E-2,-1.4277193E-1,3.27318E-2,3.4212592E-1],"categories":[],"categories_nodes":[],"categories_segments":[],"categories_sizes":[],"default_left":[0,0,0,0,0,0,0,0,0,0,0,0,0,0,0,0,0,0,0,0,0,0,0,0,0,0,0,0,0,0,0,0,0,0,0,0,0,0,0,0,0,0,0,0,0,0,0,0,0,0,0,0,0,0,0,0,0,0,0,0,0,0,0],"id":18,"left_children":[1,3,5,7,9,-1,11,13,15,17,19,-1,-1,21,23,25,27,29,31,33,35,37,-1,39,41,43,-1,45,-1,-1,-1,-1,-1,-1,-1,-1,-1,47,49,51,53,55,57,-1,59,-1,61,-1,-1,-1,-1,-1,-1,-1,-1,-1,-1,-1,-1,-1,-1,-1,-1],"loss_changes":[3.0509787E0,4.2546883E0,4.7050185E0,4.305128E0,7.5944552E0,0E0,1.7020874E0,5.1733418E0,4.8358817E0,4.2098618E0,8.29863E0,0E0,0E0,9.809927E0,4.9793806E0,4.057204E0,7.169353E0,5.6349587E0,1.7970872E-1,5.7671967E0,6.563302E-1,7.063984E0,0E0,8.504013E0,7.016906E0,1.8174229E0,0E0,5.0435767E0,0E0,0E0,0E0,0E0,0E0,0E0,0E0,0E0,0E0,2.564496E0,9.506895E0,2.9299078E0,5.5799484E0,3.0546181E0,7.090685E0,0E0,2.0610743E0,0E0,2.139367E0,0E0,0E0,0E0,0E0,0E0,0E0,0E0,0E0,0E0,0E0,0E0,0E0,0E0,0E0,0E0,0E0],"parents":[2147483647,0,0,1,1,2,2,3,3,4,4,6,6,7,7,8,8,9,9,10,10,13,13,14,14,15,15,16,16,17,17,18,18,19,19,20,20,21,21,23,23,24,24,25,25,27,27,37,37,38,38,39,39,40,40,41,41,42,42,44,44,46,46],"right_children":[2,4,6,8,10,-1,12,14,16,18,20,-1,-1,22,24,26,28,30,32,34,36,38,-1,40,42,44,-1,46,-1,-1,-1,-1,-1,-1,-1,-1,-1,48,50,52,54,56,58,-1,60,-1,62,-1,-1,-1,-1,-1,-1,-1,-1,-1,-1,-1,-1,-1,-1,-1,-1],"split_conditions":[1.5E2,1.44E2,2.857143E-1,1.15E1,2.7E0,1.541676E-1,1.55E2,4.1E0,2.35E0,1.08E2,1E1,-1.8028E-1,5.2026797E-2,1.1E0,1.09E2,1.3E1,9.3E1,4.1E0,1.6E1,9.1E1,5E0,2.9E1,-1.5493475E-1,6E0,2.6E1,3E-1,1.800627E-1,1E2,-1.5294966E-1,-1.13743626E-1,3.5433578E-1,-2.6392255E-2,-1.5534483E-1,3.7815955E-2,5.864349E-1,-1.06814146E-1,5.6168478E-2,1.8E1,1.8E1,8.3156166E1,2E1,2.36E1,8.5E0,8.099591E-2,1.34E2,-1.1154603E-1,1.3E0,1.2015518E-1,-1.372836E-1,2.8096689E-2,4.6614215E-1,-1.7623979E-1,5.1448144E-2,-1.9512566E-2,9.981646E-2,-1.7191003E-1,9.469194E-2,2.5920723E-2,2.136389E-1,4.0324718E-2,-1.4277193E-1,3.27318E-2,3.4212592E-1],"split_indices":[86,81,23,150,138,0,116,85,74,83,120,0,0,33,35,117,30,115,34,60,85,62,0,119,32,33,0,113,0,0,0,0,0,0,0,0,0,32,164,162,164,135,134,0,86,0,95,0,0,0,0,0,0,0,0,0,0,0,0,0,0,0,0],"split_type":[0,0,0,0,0,0,0,0,0,0,0,0,0,0,0,0,0,0,0,0,0,0,0,0,0,0,0,0,0,0,0,0,0,0,0,0,0,0,0,0,0,0,0,0,0,0,0,0,0,0,0,0,0,0,0,0,0,0,0,0,0,0,0],"sum_hessian":[2.4921495E2,2.3803429E2,1.11806555E1,2.2591731E2,1.2116977E1,1.6039916E0,9.576664E0,1.8658832E2,3.9329002E1,6.813704E0,5.3032727E0,8.569539E0,1.007125E0,1.5257953E1,1.7133035E2,3.0368498E1,8.960505E0,2.4269E0,4.386804E0,3.1985786E0,2.1046944E0,1.1930018E1,3.3279345E0,1.3003975E2,4.1290607E1,2.9278498E1,1.0900005E0,5.808977E0,3.1515276E0,1.2683214E0,1.1585786E0,1.0013227E0,3.3854816E0,1.2303126E0,1.968266E0,1.103277E0,1.0014173E0,4.198977E0,7.731041E0,1.7418358E1,1.1262139E2,7.297613E0,3.3992992E1,1.1285237E0,2.8149975E1,1.2448369E0,4.5641403E0,2.0666728E0,2.1323042E0,3.3532631E0,4.377778E0,1.5246369E1,2.1719892E0,9.488355E1,1.773784E1,5.7060113E0,1.5916022E0,2.1990477E1,1.2002517E1,2.2820182E0,2.5867956E1,1.4336154E0,3.1305246E0],"tree_param":{"num_deleted":"0","num_feature":"165","num_nodes":"63","size_leaf_vector":"1"}},{"base_weights":[-1.3367141E-2,8.637005E-4,-1.5649861E-1,1.4993341E-2,-1.5599959E-1,3.2675654E-2,-5.7897204E-1,5.5900257E-2,-5.628053E-1,9.747538E-2,-1.6741791E-1,1.9230308E-2,4.5098358E-1,-1.7250256E-1,7.213807E-2,9.848303E-2,-2.4662355E-1,6.847819E-1,-1.4714347E-1,1.0125625E-2,2.0068756E-1,5.7276912E-2,-8.627171E-2,2.2925337E-1,-1.0806028E-2],"categories":[],"categories_nodes":[],"categories_segments":[],"categories_sizes":[],"default_left":[0,0,0,0,0,0,0,0,0,0,0,0,0,0,0,0,0,0,0,0,0,0,0,0,0],"id":19,"left_children":[1,3,-1,5,-1,7,9,11,13,-1,-1,15,17,-1,-1,19,21,23,-1,-1,-1,-1,-1,-1,-1],"loss_changes":[2.7209742E0,2.7150662E0,0E0,2.556847E0,0E0,3.2898552E0,2.3454804E0,3.2897701E0,2.7839534E0,0E0,0E0,4.4358473E0,5.856418E0,0E0,0E0,6.965332E0,4.886186E0,5.733612E0,0E0,0E0,0E0,0E0,0E0,0E0,0E0],"parents":[2147483647,0,0,1,1,3,3,5,5,6,6,7,7,8,8,11,11,12,12,15,15,16,16,17,17],"right_children":[2,4,-1,6,-1,8,10,12,14,-1,-1,16,18,-1,-1,20,22,24,-1,-1,-1,-1,-1,-1,-1],"split_conditions":[9.4E1,8.788767E1,-1.5649861E-1,6.1E1,-1.5599959E-1,2.366432E0,1.1E1,4.9E1,1.42E2,9.747538E-2,-1.6741791E-1,1.09E2,6.25E0,-1.7250256E-1,7.213807E-2,1.45E2,1.5E1,1.03E1,-1.4714347E-1,1.0125625E-2,2.0068756E-1,5.7276912E-2,-8.627171E-2,2.2925337E-1,-1.0806028E-2],"split_indices":[156,162,0,37,0,97,112,62,81,0,0,83,103,0,0,86,34,150,0,0,0,0,0,0,0],"split_type":[0,0,0,0,0,0,0,0,0,0,0,0,0,0,0,0,0,0,0,0,0,0,0,0,0],"sum_hessian":[2.4753558E2,2.4401945E2,3.5161214E0,2.4064578E2,3.3736708E0,2.3460655E2,6.0392346E0,2.2667215E2,7.9344106E0,1.0038553E0,5.0353794E0,2.0837988E2,1.829226E1,6.040188E0,1.8942227E0,1.6101103E2,4.736885E1,1.5634896E1,2.6573622E0,1.5392715E2,7.0838757E0,1.2050323E1,3.531853E1,9.284199E0,6.350698E0],"tree_param":{"num_deleted":"0","num_feature":"165","num_nodes":"25","size_leaf_vector":"1"}},{"base_weights":[-1.4577811E-2,-2.5035465E-1,2.9867569E-2,1.9920823E-1,-5.2365845E-1,7.6792556E-1,-2.5610055E-3,-1.5386459E-1,5.151065E-1,5.0021964E-1,-7.5126857E-1,1.2737662E0,-4.2602274E-1,2.829134E-2,-6.0186535E-1,-1.3493228E-1,8.106398E-1,1.2500076E0,-1.2659247E-1,-9.0001196E-1,3.9734417E-1,-1.12469666E-1,1.8341291E0,-1.1404454E-3,-1.2012792E-1,4.5346958E-3,9.912154E-1,-1.7650571E-1,1.0256976E-1,1.4625484E0,-8.426906E-2,2.5208777E-2,3.9415744E-1,-1.894673E-1,-6.781847E-3,1.3565572E-1,-1.3559227E-2,5.2583617E-1,6.126017E-2,-6.1142053E-2,3.1777263E-1,1.8423742E0,-1.1725539E-1,5.1357683E-2,1.7590152E0,-1.2876414E-1,3.6775452E-1,-5.1974696E-1,2.0677041E-2,8.9668524E-1,-1.3444373E-1,4.9423043E-2,4.9041224E-1,4.166235E-1,8.982019E-2,1.3378939E-1,-4.4052056E-3,8.459816E-2,-1.421964E-1,1.2389386E-1,-7.162822E-3,-3.5481192E-2,2.507637E-1,-1.2423699E-1,7.1247116E-2],"categories":[],"categories_nodes":[],"categories_segments":[],"categories_sizes":[],"default_left":[0,0,0,0,0,0,0,0,0,0,0,0,0,0,0,0,0,0,0,0,0,0,0,0,0,0,0,0,0,0,0,0,0,0,0,0,0,0,0,0,0,0,0,0,0,0,0,0,0,0,0,0,0,0,0,0,0,0,0,0,0,0,0,0,0],"id":20,"left_children":[1,3,5,7,9,11,13,-1,15,17,19,21,23,25,27,-1,29,31,-1,33,35,-1,37,-1,-1,39,41,-1,-1,43,45,-1,-1,-1,-1,-1,-1,-1,-1,47,49,51,-1,-1,53,-1,55,57,59,61,63,-1,-1,-1,-1,-1,-1,-1,-1,-1,-1,-1,-1,-1,-1],"loss_changes":[2.607043E0,4.951708E0,5.018976E0,5.181658E0,6.158022E0,5.87296E0,3.7481368E0,0E0,4.9044456E0,5.135302E0,3.8939695E0,7.6677055E0,2.443443E-1,4.407494E0,3.557593E0,0E0,6.1796722E0,2.5166311E0,0E0,7.3156166E-1,4.4674414E-1,0E0,5.4824944E0,0E0,0E0,3.9123034E0,7.309074E0,0E0,0E0,1.714755E0,1.5825421E0,0E0,0E0,0E0,0E0,0E0,0E0,0E0,0E0,5.9118447E0,8.749254E0,2.559576E0,0E0,0E0,1.0571003E0,0E0,4.3497625E-1,4.6002116E0,4.5691185E0,5.8173103E0,4.8485713E0,0E0,0E0,0E0,0E0,0E0,0E0,0E0,0E0,0E0,0E0,0E0,0E0,0E0,0E0],"parents":[2147483647,0,0,1,1,2,2,3,3,4,4,5,5,6,6,8,8,9,9,10,10,11,11,12,12,13,13,14,14,16,16,17,17,19,19,20,20,22,22,25,25,26,26,29,29,30,30,39,39,40,40,41,41,44,44,46,46,47,47,48,48,49,49,50,50],"right_children":[2,4,6,8,10,12,14,-1,16,18,20,22,24,26,28,-1,30,32,-1,34,36,-1,38,-1,-1,40,42,-1,-1,44,46,-1,-1,-1,-1,-1,-1,-1,-1,48,50,52,-1,-1,54,-1,56,58,60,62,64,-1,-1,-1,-1,-1,-1,-1,-1,-1,-1,-1,-1,-1,-1],"split_conditions":[9.9E1,9.4E0,1.36E2,8.545652E0,3E0,4.5E0,5.45E1,-1.5386459E-1,4E0,4E0,7.25E0,8.827586E-1,6.2145206E1,6.3E1,6.4E0,-1.3493228E-1,2.3629078E-1,1.07E1,-1.2659247E-1,1.425E2,5E-1,-1.12469666E-1,1.4E0,-1.1404454E-3,-1.2012792E-1,2.6958963E-1,2E1,-1.7650571E-1,1.0256976E-1,1E2,3.9E1,2.5208777E-2,3.9415744E-1,-1.894673E-1,-6.781847E-3,1.3565572E-1,-1.3559227E-2,5.2583617E-1,6.126017E-2,8.7E0,5.25E-1,1E0,-1.1725539E-1,5.1357683E-2,9.6E1,-1.2876414E-1,1.0469393E0,1E1,4.4E-1,1.1E0,3.6771917E0,4.9423043E-2,4.9041224E-1,4.166235E-1,8.982019E-2,1.3378939E-1,-4.4052056E-3,8.459816E-2,-1.421964E-1,1.2389386E-1,-7.162822E-3,-3.5481192E-2,2.507637E-1,-1.2423699E-1,7.1247116E-2],"split_indices":[108,150,86,122,117,90,27,0,80,115,106,74,162,62,63,0,99,154,0,81,58,0,89,0,0,99,120,0,0,65,42,0,0,0,0,0,0,0,0,134,104,17,0,0,108,0,142,34,23,95,98,0,0,0,0,0,0,0,0,0,0,0,0,0,0],"split_type":[0,0,0,0,0,0,0,0,0,0,0,0,0,0,0,0,0,0,0,0,0,0,0,0,0,0,0,0,0,0,0,0,0,0,0,0,0,0,0,0,0,0,0,0,0,0,0,0,0,0,0,0,0,0,0,0,0,0,0,0,0,0,0,0,0],"sum_hessian":[2.470693E2,3.8452267E1,2.0861703E2,1.4640661E1,2.3811607E1,7.825777E0,2.0079126E2,3.2477727E0,1.1392889E1,4.1128263E0,1.969878E1,5.4499445E0,2.3758328E0,1.918667E2,8.924557E0,2.0116122E0,9.381276E0,2.4130788E0,1.6997476E0,1.7631914E1,2.066867E0,1.2735198E0,4.1764245E0,1.0004069E0,1.3754258E0,1.8822758E2,3.639121E0,7.2958865E0,1.6286699E0,5.06055E0,4.3207264E0,1.4018867E0,1.0111921E0,1.6629473E1,1.0024396E0,1.0029088E0,1.0639583E0,2.2728283E0,1.9035964E0,1.5626767E2,3.1959913E1,2.2546687E0,1.3844522E0,1.3669975E0,3.693553E0,1.7411193E0,2.579607E0,2.2848267E1,1.334194E2,1.3585425E1,1.8374487E1,1.0120177E0,1.2426509E0,2.487756E0,1.2057968E0,1.0511472E0,1.5284598E0,3.6487954E0,1.9199472E1,1.0642781E1,1.2277662E2,3.5155451E0,1.00698805E1,9.090739E0,9.283749E0],"tree_param":{"num_deleted":"0","num_feature":"165","num_nodes":"65","size_leaf_vector":"1"}},{"base_weights":[-1.3205632E-2,1.705443E-2,-3.2690552E-1,-1.715715E-2,5.9972197E-1,7.5841576E-1,-4.7611398E-1,-1.626236E-1,2.4211446E-3,1.207992E0,-3.220388E-1,1.9289923E-1,3.4674834E-2,4.6609396E-1,-6.7730755E-1,3.50818E-2,-4.5783007E-1,1.8867018E0,-2.1593763E-1,-1.5186384E-1,9.1840774E-2,-1.1565726E-1,2.3603164E-1,-8.6980164E-1,9.737278E-2,5.3452604E-2,-1.5532567E-1,-6.931861E-1,1.9437939E-1,5.264149E-1,2.7105541E0,-1.1924099E-1,6.931915E-2,-1.8662731E-1,-2.1915766E-3,8.374466E-2,-4.2246133E-1,-1.5052168E-1,-8.81996E-4,2.570108E-1,-1.04646325E-1,6.7706496E-1,1.411277E-1,2.1256948E-2,-1.5793015E-1,1.211797E-1,-1.4089827E-1],"categories":[],"categories_nodes":[],"categories_segments":[],"categories_sizes":[],"default_left":[0,0,0,0,0,0,0,0,0,0,0,0,0,0,0,0,0,0,0,0,0,0,0,0,0,0,0,0,0,0,0,0,0,0,0,0,0,0,0,0,0,0,0,0,0,0,0],"id":21,"left_children":[1,3,5,7,9,11,13,-1,15,17,19,-1,-1,21,23,25,27,29,31,-1,-1,-1,-1,33,-1,35,-1,37,-1,39,41,-1,-1,-1,-1,43,45,-1,-1,-1,-1,-1,-1,-1,-1,-1,-1],"loss_changes":[2.3354511E0,4.491435E0,3.865853E0,3.3260093E0,7.394704E0,1.9465029E-1,4.038965E0,0E0,3.1604884E0,7.8857193E0,2.3153856E0,0E0,0E0,3.7015886E0,4.1418176E0,2.9679341E0,5.3616247E0,4.5608654E0,9.3288946E-1,0E0,0E0,0E0,0E0,7.837877E-1,0E0,2.8154602E0,0E0,5.1017714E-1,0E0,3.2654414E0,1.7869205E0,0E0,0E0,0E0,0E0,3.669533E0,3.8217275E0,0E0,0E0,0E0,0E0,0E0,0E0,0E0,0E0,0E0,0E0],"parents":[2147483647,0,0,1,1,2,2,3,3,4,4,5,5,6,6,8,8,9,9,10,10,13,13,14,14,15,15,16,16,17,17,18,18,23,23,25,25,27,27,29,29,30,30,35,35,36,36],"right_children":[2,4,6,8,10,12,14,-1,16,18,20,-1,-1,22,24,26,28,30,32,-1,-1,-1,-1,34,-1,36,-1,38,-1,40,42,-1,-1,-1,-1,44,46,-1,-1,-1,-1,-1,-1,-1,-1,-1,-1],"split_conditions":[1.06E2,1.41E2,2.18E1,1.3E1,1.085E1,1.6340134E0,1.3841176E2,-1.626236E-1,1E0,1.7E0,1.46E2,1.9289923E-1,3.4674834E-2,3.9E0,2.3E1,1.13E2,6.329621E-1,1.01E1,2.7537853E-1,-1.5186384E-1,9.1840774E-2,-1.1565726E-1,2.3603164E-1,5E0,9.737278E-2,1E0,-1.5532567E-1,3.45E1,1.9437939E-1,7.022192E1,2.8E0,-1.1924099E-1,6.931915E-2,-1.8662731E-1,-2.1915766E-3,1.28E1,1.03E2,-1.5052168E-1,-8.81996E-4,2.570108E-1,-1.04646325E-1,6.7706496E-1,1.411277E-1,2.1256948E-2,-1.5793015E-1,1.211797E-1,-1.4089827E-1],"split_indices":[88,91,151,57,126,142,76,0,6,114,86,0,0,90,164,113,100,126,99,0,0,0,0,70,0,8,0,27,0,162,138,0,0,0,0,134,83,0,0,0,0,0,0,0,0,0,0],"split_type":[0,0,0,0,0,0,0,0,0,0,0,0,0,0,0,0,0,0,0,0,0,0,0,0,0,0,0,0,0,0,0,0,0,0,0,0,0,0,0,0,0,0,0,0,0,0,0],"sum_hessian":[2.4444185E2,2.237994E2,2.064246E1,2.123044E2,1.1494991E1,2.001428E0,1.8641031E1,4.1236753E0,2.0818073E2,6.738035E0,4.7569556E0,1.0004323E0,1.0009958E0,3.048409E0,1.5592623E1,1.952491E2,1.2931621E1,4.342977E0,2.3950582E0,3.0678618E0,1.6890941E0,1.3151041E0,1.7333049E0,1.3597203E1,1.9954201E0,1.9184146E2,3.4076505E0,1.1546108E1,1.3855128E0,2.2563756E0,2.0866015E0,1.3933259E0,1.0017322E0,1.2582788E1,1.014414E0,1.8113612E2,1.0705331E1,1.0543795E1,1.0023133E0,1.1795645E0,1.0768111E0,1.0460368E0,1.0405645E0,1.7743529E2,3.7008379E0,2.0569112E0,8.648419E0],"tree_param":{"num_deleted":"0","num_feature":"165","num_nodes":"47","size_leaf_vector":"1"}},{"base_weights":[-1.2144506E-2,-5.881368E-1,4.5464593E-3,-1.674196E-1,8.752432E-2,6.096253E-1,-2.2653574E-2,8.6583054E-1,-1.1768141E-1,-3.7409806E-1,2.1188427E-2,3.816121E-1,3.923734E-1,-8.569062E-1,1.6540556E-1,4.0876183E-1,-2.4748292E-2,-1.4171748E-1,1.0354671E0,-1.8473718E-1,-1.0130082E-2,4.8068085E-1,-5.597829E-1,8.5539013E-1,-1.4911366E-1,-5.755105E-1,1.7898731E-2,3.5086384E-1,2.6771855E-1,-1.0966136E-1,6.9560903E-1,-6.8112127E-3,-1.4132968E-1,2.4222583E-1,2.0111325E0,-5.034494E-1,2.3021989E-1,-8.447546E-1,1.5392157E-1,9.43936E-1,-9.163392E-3,-2.9278044E-2,1.341491E-1,1.8615063E-1,-1.0088577E-1,-4.064223E-2,2.3725186E-1,5.0433792E-2,5.24934E-1,-1.521269E-1,5.1376827E-2,-1.822668E-1,-1.449316E-2,-6.2632106E-2,3.6787176E-1,8.175806E-3,-1.3558279E-1],"categories":[],"categories_nodes":[],"categories_segments":[],"categories_sizes":[],"default_left":[0,0,0,0,0,0,0,0,0,0,0,0,0,0,0,0,0,0,0,0,0,0,0,0,0,0,0,0,0,0,0,0,0,0,0,0,0,0,0,0,0,0,0,0,0,0,0,0,0,0,0,0,0,0,0,0,0],"id":22,"left_children":[1,3,5,-1,-1,7,9,11,-1,13,15,17,-1,19,21,23,25,-1,27,-1,-1,29,31,33,35,37,39,-1,41,-1,43,-1,-1,45,47,49,-1,51,-1,53,55,-1,-1,-1,-1,-1,-1,-1,-1,-1,-1,-1,-1,-1,-1,-1,-1],"loss_changes":[2.3526027E0,2.1261826E0,3.9397392E0,0E0,0E0,3.6702247E0,3.5400991E0,3.9683714E0,0E0,6.778506E0,3.655686E0,6.0129824E0,0E0,6.858883E-1,3.211904E0,5.5480194E0,4.3323555E0,0E0,2.3095613E0,0E0,0E0,2.4844375E0,3.1274378E-1,8.180082E0,5.428173E0,5.4504232E0,4.312893E0,0E0,7.0154864E-1,0E0,2.8135614E0,0E0,0E0,4.079406E0,3.765585E0,1.948688E0,0E0,5.2633095E-1,0E0,6.076262E0,5.645548E0,0E0,0E0,0E0,0E0,0E0,0E0,0E0,0E0,0E0,0E0,0E0,0E0,0E0,0E0,0E0,0E0],"parents":[2147483647,0,0,1,1,2,2,5,5,6,6,7,7,9,9,10,10,11,11,13,13,14,14,15,15,16,16,18,18,21,21,22,22,23,23,24,24,25,25,26,26,28,28,30,30,33,33,34,34,35,35,37,37,39,39,40,40],"right_children":[2,4,6,-1,-1,8,10,12,-1,14,16,18,-1,20,22,24,26,-1,28,-1,-1,30,32,34,36,38,40,-1,42,-1,44,-1,-1,46,48,50,-1,52,-1,54,56,-1,-1,-1,-1,-1,-1,-1,-1,-1,-1,-1,-1,-1,-1,-1,-1],"split_conditions":[9.3E1,3.1E0,9.5E1,-1.674196E-1,8.752432E-2,1.13E1,9.9E1,1.1E1,-1.1768141E-1,1.2E1,1.01E2,4.7E0,3.923734E-1,1.4E2,1.3628572E2,1.976047E0,2.42E1,-1.4171748E-1,9.4E0,-1.8473718E-1,-1.0130082E-2,9.1E1,8.4E-1,7E0,5E0,1.19E2,7.9E0,3.5086384E-1,1.04E2,-1.0966136E-1,1.51E2,-6.8112127E-3,-1.4132968E-1,1.38E2,9.9E1,6E0,2.3021989E-1,4.725816E0,1.5392157E-1,3.8330545E0,1.3E1,-2.9278044E-2,1.341491E-1,1.8615063E-1,-1.0088577E-1,-4.064223E-2,2.3725186E-1,5.0433792E-2,5.24934E-1,-1.521269E-1,5.1376827E-2,-1.822668E-1,-1.449316E-2,-6.2632106E-2,3.6787176E-1,8.175806E-3,-1.3558279E-1],"split_indices":[113,139,113,0,0,150,108,154,0,93,73,110,0,91,76,101,131,0,130,0,0,65,74,120,115,108,154,0,83,0,65,0,0,40,78,103,0,101,0,98,107,0,0,0,0,0,0,0,0,0,0,0,0,0,0,0,0],"split_type":[0,0,0,0,0,0,0,0,0,0,0,0,0,0,0,0,0,0,0,0,0,0,0,0,0,0,0,0,0,0,0,0,0,0,0,0,0,0,0,0,0,0,0,0,0,0,0,0,0,0,0,0,0,0,0,0,0],"sum_hessian":[2.4343117E2,5.891267E0,2.3753989E2,4.8886647E0,1.002602E0,9.297586E0,2.2824231E2,7.88799E0,1.4095969E0,2.4479317E1,2.0376299E2,6.406038E0,1.4819521E0,1.2607972E1,1.1871345E1,2.0754713E1,1.8300827E2,2.3702745E0,4.0357633E0,1.1509063E1,1.0989096E0,8.509157E0,3.3621874E0,1.1230452E1,9.524262E0,1.2254434E1,1.7075385E2,1.4206108E0,2.6151526E0,1.2022346E0,7.3069224E0,1.0031495E0,2.3590379E0,8.127889E0,3.102563E0,7.96612E0,1.5581423E0,1.0520579E1,1.7338543E0,3.8863602E0,1.6686748E2,1.6039119E0,1.0112407E0,6.2973676E0,1.0095549E0,6.0554156E0,2.072473E0,1.1672262E0,1.9353367E0,5.95233E0,2.0137897E0,9.519827E0,1.0007526E0,1.887183E0,1.9991772E0,1.5612366E2,1.074382E1],"tree_param":{"num_deleted":"0","num_feature":"165","num_nodes":"57","size_leaf_vector":"1"}},{"base_weights":[-1.0001083E-2,2.4338368E-2,-3.046471E-1,-7.881181E-3,4.4935748E-1,-4.951948E-1,2.2168519E-1,1.7781202E-2,-6.415751E-1,8.5635287E-1,-2.0645215E-1,7.776998E-2,-6.8888456E-1,-1.2610993E-1,5.5166924E-1,-3.306917E-2,3.3936355E-1,-1.7239502E-1,8.1028245E-2,1.0665659E0,-5.670411E-2,-1.5013407E-1,4.250922E-1,-1.4466523E-1,6.7856526E-1,-1.8294695E-1,-1.156155E-3,9.5151895E-1,-6.2489945E-2,1.0764872E-2,-6.5404165E-1,-5.8888525E-1,5.420945E-1,1.3821709E0,-1.1585387E-3,1.8928906E-1,-2.367246E-2,6.925138E-3,2.0928164E-1,1.9188577E-1,-1.382824E-1,2.6737937E-1,-2.031928E-3,-9.536313E-3,2.6727292E-1,-8.234189E-1,7.449874E-2,1.9594006E-2,-1.5434681E-1,8.987975E-1,-1.4731145E-1,1.7109141E0,6.761496E-3,4.798617E-3,-1.4490843E-1,-1.7865007E-1,-2.0025788E-2,-8.112999E-2,2.3402312E-1,-1.1106205E-1,1.371154E-1,1.1384046E-1,4.2852378E-1],"categories":[],"categories_nodes":[],"categories_segments":[],"categories_sizes":[],"default_left":[0,0,0,0,0,0,0,0,0,0,0,0,0,0,0,0,0,0,0,0,0,0,0,0,0,0,0,0,0,0,0,0,0,0,0,0,0,0,0,0,0,0,0,0,0,0,0,0,0,0,0,0,0,0,0,0,0,0,0,0,0,0,0],"id":23,"left_children":[1,3,5,7,9,11,13,15,17,19,21,23,25,-1,27,29,31,-1,-1,33,-1,-1,35,-1,37,-1,39,41,-1,43,45,47,49,51,-1,-1,-1,-1,-1,-1,-1,-1,-1,53,-1,55,-1,-1,-1,57,59,61,-1,-1,-1,-1,-1,-1,-1,-1,-1,-1,-1],"loss_changes":[2.4514828E0,2.97881E0,2.6459112E0,3.31167E0,4.267806E0,2.1483169E0,2.4323585E0,3.2165978E0,2.177615E0,2.615169E0,2.613364E0,3.2184618E0,2.2057948E0,0E0,2.3278027E0,4.6388707E0,5.372377E0,0E0,0E0,2.8370924E0,0E0,0E0,1.1683333E0,0E0,8.5308564E-1,0E0,3.6561797E0,1.5941684E0,0E0,4.3166165E0,2.2603397E0,7.4030924E-1,5.680065E0,2.8067875E0,0E0,0E0,0E0,0E0,0E0,0E0,0E0,0E0,0E0,3.8174343E0,0E0,4.1342688E-1,0E0,0E0,0E0,5.7862597E0,3.2866616E0,1.3313904E0,0E0,0E0,0E0,0E0,0E0,0E0,0E0,0E0,0E0,0E0,0E0],"parents":[2147483647,0,0,1,1,2,2,3,3,4,4,5,5,6,6,7,7,8,8,9,9,10,10,11,11,12,12,14,14,15,15,16,16,19,19,22,22,24,24,26,26,27,27,29,29,30,30,31,31,32,32,33,33,43,43,45,45,49,49,50,50,51,51],"right_children":[2,4,6,8,10,12,14,16,18,20,22,24,26,-1,28,30,32,-1,-1,34,-1,-1,36,-1,38,-1,40,42,-1,44,46,48,50,52,-1,-1,-1,-1,-1,-1,-1,-1,-1,54,-1,56,-1,-1,-1,58,60,62,-1,-1,-1,-1,-1,-1,-1,-1,-1,-1,-1],"split_conditions":[2.3E0,1.9E0,1.55E0,5.375369E0,1.7E1,3.3E-1,2.906367E0,3.3E0,6.363961E-1,6.25E0,3.75E1,5.5E0,4.3E1,-1.2610993E-1,1.6E1,9E-1,8E0,-1.7239502E-1,8.1028245E-2,1.4E2,-5.670411E-2,-1.5013407E-1,1.5862262E1,-1.4466523E-1,1.7672955E1,-1.8294695E-1,5E1,1.0066667E1,-6.2489945E-2,8.25E1,7.2E0,7.0710677E-1,5E0,3.1E0,-1.1585387E-3,1.8928906E-1,-2.367246E-2,6.925138E-3,2.0928164E-1,1.9188577E-1,-1.382824E-1,2.6737937E-1,-2.031928E-3,1.0173495E1,2.6727292E-1,1.575E1,7.449874E-2,1.9594006E-2,-1.5434681E-1,5.5964382E1,8.7E1,1.06E2,6.761496E-3,4.798617E-3,-1.4490843E-1,-1.7865007E-1,-2.0025788E-2,-8.112999E-2,2.3402312E-1,-1.1106205E-1,1.371154E-1,1.1384046E-1,4.2852378E-1],"split_indices":[95,95,104,98,119,23,101,138,100,103,27,103,50,0,96,94,93,0,0,116,0,0,47,0,47,0,55,122,0,55,114,97,103,114,0,0,0,0,0,0,0,0,0,50,0,148,0,0,0,162,156,83,0,0,0,0,0,0,0,0,0,0,0],"split_type":[0,0,0,0,0,0,0,0,0,0,0,0,0,0,0,0,0,0,0,0,0,0,0,0,0,0,0,0,0,0,0,0,0,0,0,0,0,0,0,0,0,0,0,0,0,0,0,0,0,0,0,0,0,0,0,0,0,0,0,0,0,0,0],"sum_hessian":[2.4055688E2,2.1626923E2,2.4287651E1,2.0194202E2,1.432722E1,1.7875393E1,6.4122577E0,1.9501646E2,6.925543E0,8.651998E0,5.675223E0,4.667291E0,1.3208102E1,1.5355678E0,4.87669E0,1.6916443E2,2.5852043E1,5.8667226E0,1.0588204E0,7.359151E0,1.2928467E0,2.9470484E0,2.7281747E0,1.9128127E0,2.7544785E0,9.694383E0,3.5137193E0,3.2648277E0,1.611862E0,1.5892844E2,1.0235991E1,4.29261E0,2.1559433E1,5.4625607E0,1.8965901E0,1.0139371E0,1.7142376E0,1.3991979E0,1.3552804E0,1.3061175E0,2.2076018E0,2.0522501E0,1.2125775E0,1.5750903E2,1.4194005E0,8.956108E0,1.2798822E0,1.0000843E0,3.2925258E0,1.4007919E1,7.5515137E0,4.175624E0,1.2869366E0,1.5137683E2,6.132204E0,7.9532623E0,1.0028455E0,2.326659E0,1.168126E1,5.2922993E0,2.2592142E0,1.7818195E0,2.3938046E0],"tree_param":{"num_deleted":"0","num_feature":"165","num_nodes":"63","size_leaf_vector":"1"}},{"base_weights":[-1.04275085E-2,9.515202E-3,-4.5311114E-1,-1.7502038E-2,4.321305E-1,-7.719869E-1,3.6598888E-1,8.723985E-3,-1.7058894E-1,-3.1785163E-1,1.3600909E0,-1.7215984E-1,-1.7429015E-2,-7.7827587E-3,1.362981E-1,3.1327765E-2,-6.8055886E-1,5.0935245E-1,-1.6543512E-1,1.9054652E0,-2.0834994E-2,9.4594E-3,9.5624286E-1,-1.7112055E-1,3.1211141E-2,4.8923184E-4,1.830953E-1,2.5355916E0,1.6723339E-2,7.518085E-2,-2.8019425E-1,1.9514265E0,-1.23542786E-1,6.678771E-1,1.5835102E-1,7.96844E-3,1.5171915E-1,-2.7652426E-2,-1.4894103E-1,4.8844418E-1,9.115936E-2],"categories":[],"categories_nodes":[],"categories_segments":[],"categories_sizes":[],"default_left":[0,0,0,0,0,0,0,0,0,0,0,0,0,0,0,0,0,0,0,0,0,0,0,0,0,0,0,0,0,0,0,0,0,0,0,0,0,0,0,0,0],"id":24,"left_children":[1,3,5,7,9,11,13,15,-1,17,19,-1,-1,-1,-1,21,23,25,-1,27,-1,29,31,-1,-1,-1,-1,33,-1,35,37,39,-1,-1,-1,-1,-1,-1,-1,-1,-1],"loss_changes":[2.1150904E0,2.6309938E0,2.979925E0,4.7602286E0,1.0067708E1,3.966651E-1,4.82861E-1,3.3135755E0,0E0,3.9887125E0,5.2914906E0,0E0,0E0,0E0,0E0,4.14857E0,1.1225224E0,7.8944343E-1,0E0,5.182066E0,0E0,3.8629324E0,8.626604E0,0E0,0E0,0E0,0E0,2.2017784E0,0E0,3.9614892E0,2.3716507E0,1.1939526E0,0E0,0E0,0E0,0E0,0E0,0E0,0E0,0E0,0E0],"parents":[2147483647,0,0,1,1,2,2,3,3,4,4,5,5,6,6,7,7,9,9,10,10,15,15,16,16,17,17,19,19,21,21,22,22,27,27,29,29,30,30,31,31],"right_children":[2,4,6,8,10,12,14,16,-1,18,20,-1,-1,-1,-1,22,24,26,-1,28,-1,30,32,-1,-1,-1,-1,34,-1,36,38,40,-1,-1,-1,-1,-1,-1,-1,-1,-1],"split_conditions":[4.8E0,1.5E0,1.9147203E1,3.5E-1,8.3E0,1.8E0,1.2E1,6.2E1,-1.7058894E-1,8E0,6.25E-1,-1.7215984E-1,-1.7429015E-2,-7.7827587E-3,1.362981E-1,1.3E2,9.4516313E-1,6.4126337E-1,-1.6543512E-1,1.064E2,-2.0834994E-2,1E0,1.3E1,-1.7112055E-1,3.1211141E-2,4.8923184E-4,1.830953E-1,2.1213203E1,1.6723339E-2,4.75E1,1.4E0,1.68E2,-1.23542786E-1,6.678771E-1,1.5835102E-1,7.96844E-3,1.5171915E-1,-2.7652426E-2,-1.4894103E-1,4.8844418E-1,9.115936E-2],"split_indices":[58,43,144,53,134,104,72,57,0,39,105,0,0,0,0,45,100,100,0,73,0,0,93,0,0,0,0,50,0,22,109,163,0,0,0,0,0,0,0,0,0],"split_type":[0,0,0,0,0,0,0,0,0,0,0,0,0,0,0,0,0,0,0,0,0,0,0,0,0,0,0,0,0,0,0,0,0,0,0,0,0,0,0,0,0],"sum_hessian":[2.3809201E2,2.2876476E2,9.32725E0,2.1591988E2,1.2844887E1,6.7550325E0,2.572217E0,2.1030751E2,5.6123667E0,7.4672737E0,5.3776135E0,5.7521462E0,1.0028863E0,1.5104384E0,1.0617785E0,2.0455408E2,5.75343E0,2.8456066E0,4.621667E0,3.6987002E0,1.6789135E0,2.0081627E2,3.737802E0,4.739164E0,1.0142661E0,1.7132392E0,1.1323675E0,2.4570923E0,1.2416078E0,1.6428174E2,3.6534534E1,2.1430004E0,1.5948017E0,1.0555763E0,1.401516E0,1.5721083E2,7.070905E0,2.8977926E1,7.5566072E0,1.1369897E0,1.0060108E0],"tree_param":{"num_deleted":"0","num_feature":"165","num_nodes":"41","size_leaf_vector":"1"}},{"base_weights":[-7.7007497E-3,3.995643E-3,-1.4792994E-1,-2.6458224E-2,2.8911844E-1,-3.796065E-3,-6.3108015E-1,4.2943603E-1,-1.3918717E-1,3.65529E-2,-3.222268E-1,-1.6761182E-1,-7.516652E-3,2.6044148E-1,2.7124342E-1,3.3331436E-1,-4.1011777E-2,3.5288575E-1,-5.9049803E-1,4.3729287E-2,1.2914711E0,2.1761063E-1,1.3036337E0,-5.579176E-1,3.7711572E-2,-2.7882665E-1,1.2198149E0,-7.4705565E-1,8.174902E-2,3.0273205E-1,-5.201667E-1,3.2834357E-1,5.9853535E-2,7.833651E-2,-1.3590786E-1,-2.5181184E-2,4.1305685E-1,1.4861432E-1,-1.3799213E-1,-4.03338E-3,1.4165822E-1,1.6015998E-1,-1.5088354E-1,3.1516263E-1,6.419247E-2,-1.7160736E-1,2.2781614E-2,-2.249488E-2,2.9703042E-1,-1.1940135E-1,-2.7060969E-2],"categories":[],"categories_nodes":[],"categories_segments":[],"categories_sizes":[],"default_left":[0,0,0,0,0,0,0,0,0,0,0,0,0,0,0,0,0,0,0,0,0,0,0,0,0,0,0,0,0,0,0,0,0,0,0,0,0,0,0,0,0,0,0,0,0,0,0,0,0,0,0],"id":25,"left_children":[1,3,-1,5,7,9,11,13,-1,15,17,-1,-1,19,-1,21,23,25,27,29,31,33,35,37,39,41,43,45,-1,47,49,-1,-1,-1,-1,-1,-1,-1,-1,-1,-1,-1,-1,-1,-1,-1,-1,-1,-1,-1,-1],"loss_changes":[2.0347745E0,2.0446305E0,0E0,2.9143462E0,3.4395697E0,2.6609132E0,9.124608E-1,2.8587222E0,0E0,4.246604E0,4.4264646E0,0E0,0E0,4.0955625E0,0E0,4.0066667E0,5.989837E0,4.309964E0,2.9712186E0,2.5512652E0,6.18114E-1,5.7857466E0,4.474793E0,3.8539066E0,4.9911814E0,3.1751652E0,5.3151083E-1,1.5392437E0,0E0,5.9914417E0,8.2659125E-2,0E0,0E0,0E0,0E0,0E0,0E0,0E0,0E0,0E0,0E0,0E0,0E0,0E0,0E0,0E0,0E0,0E0,0E0,0E0,0E0],"parents":[2147483647,0,0,1,1,3,3,4,4,5,5,6,6,7,7,9,9,10,10,13,13,15,15,16,16,17,17,18,18,19,19,20,20,21,21,22,22,23,23,24,24,25,25,26,26,27,27,29,29,30,30],"right_children":[2,4,-1,6,8,10,12,14,-1,16,18,-1,-1,20,-1,22,24,26,28,30,32,34,36,38,40,42,44,46,-1,48,50,-1,-1,-1,-1,-1,-1,-1,-1,-1,-1,-1,-1,-1,-1,-1,-1,-1,-1,-1,-1],"split_conditions":[8.788767E1,8.537808E1,-1.4792994E-1,8.4284935E1,1.41E2,1.54E2,8.510959E1,2.1E1,-1.3918717E-1,4.4E0,8.888E0,-1.6761182E-1,-7.516652E-3,1.2E0,2.7124342E-1,1.376E2,8.9E1,6.95E1,1.44E2,1.8E1,2.25E-1,9.6E1,9.8E0,1.3E1,1.41E1,2.08E1,8E0,1.8E1,8.174902E-2,1.7E1,8.6843834E1,3.2834357E-1,5.9853535E-2,7.833651E-2,-1.3590786E-1,-2.5181184E-2,4.1305685E-1,1.4861432E-1,-1.3799213E-1,-4.03338E-3,1.4165822E-1,1.6015998E-1,-1.5088354E-1,3.1516263E-1,6.419247E-2,-1.7160736E-1,2.2781614E-2,-2.249488E-2,2.9703042E-1,-1.1940135E-1,-2.7060969E-2],"split_indices":[162,162,0,162,111,65,162,164,0,85,122,0,0,33,0,25,35,55,81,164,53,65,154,62,130,155,96,64,0,164,162,0,0,0,0,0,0,0,0,0,0,0,0,0,0,0,0,0,0,0,0],"split_type":[0,0,0,0,0,0,0,0,0,0,0,0,0,0,0,0,0,0,0,0,0,0,0,0,0,0,0,0,0,0,0,0,0,0,0,0,0,0,0,0,0,0,0,0,0,0,0,0,0,0,0],"sum_hessian":[2.3632986E2,2.3359166E2,2.7382054E0,2.1186919E2,2.172247E1,2.0518481E2,6.6843643E0,1.9507711E1,2.2147582E0,1.8289505E2,2.228977E1,4.650468E0,2.0338964E0,1.7582615E1,1.9250969E0,3.721473E1,1.4568031E2,6.248878E0,1.6040894E1,1.5390167E1,2.1924477E0,3.4343746E1,2.8709822E0,1.8449814E1,1.2723051E2,4.0072536E0,2.241624E0,1.4086287E1,1.954607E0,1.0863569E1,4.526598E0,1.136608E0,1.0558395E0,2.92348E1,5.108946E0,1.2880806E0,1.5829016E0,1.2736216E0,1.7176193E1,1.18014465E2,9.216036E0,1.0163242E0,2.9909296E0,1.0662056E0,1.1754184E0,1.2480861E1,1.6054255E0,8.70995E0,2.153619E0,3.313762E0,1.2128361E0],"tree_param":{"num_deleted":"0","num_feature":"165","num_nodes":"51","size_leaf_vector":"1"}},{"base_weights":[-5.7647387E-3,5.6458744E-3,-1.4633252E-1,-2.4301535E-2,2.9205886E-1,1.8330066E-2,-6.912363E-1,-1.5572263E-1,5.320035E-1,-4.9272197E-4,8.119186E-1,-8.3360755E-1,9.521871E-2,7.412051E-1,-1.4106019E-1,2.5231015E-2,-5.737642E-1,-1.0264229E-1,2.684189E-1,-1.0819879E-2,-1.8196835E-1,-1.2469858E-1,9.3496823E-1,-2.7845997E-1,6.547217E-2,8.1126615E-2,-1.7202698E-1,-7.937267E-3,1.2446432E0,2.1242693E-1,-7.843414E-2,1.4477433E-1,-3.1122013E-3,1.3289832E-1,-1.3099854E-1,-3.1184338E-3,2.9873013E-1],"categories":[],"categories_nodes":[],"categories_segments":[],"categories_sizes":[],"default_left":[0,0,0,0,0,0,0,0,0,0,0,0,0,0,0,0,0,0,0,0,0,0,0,0,0,0,0,0,0,0,0,0,0,0,0,0,0],"id":26,"left_children":[1,3,-1,5,7,9,11,-1,13,15,17,19,-1,21,-1,23,25,-1,-1,-1,-1,-1,27,29,31,-1,-1,33,35,-1,-1,-1,-1,-1,-1,-1,-1],"loss_changes":[1.9548237E0,2.0043705E0,0E0,6.0328403E0,6.0967455E0,2.9877362E0,2.5153794E0,0E0,5.353854E0,2.9100504E0,3.9445066E0,6.4753723E-1,0E0,4.933379E0,0E0,2.3265069E0,2.7257524E0,0E0,0E0,0E0,0E0,0E0,4.333377E0,3.8144093E0,8.95255E0,0E0,0E0,2.4603353E0,3.5230198E0,0E0,0E0,0E0,0E0,0E0,0E0,0E0,0E0],"parents":[2147483647,0,0,1,1,3,3,4,4,5,5,6,6,8,8,9,9,10,10,11,11,13,13,15,15,16,16,22,22,23,23,24,24,27,27,28,28],"right_children":[2,4,-1,6,8,10,12,-1,14,16,18,20,-1,22,-1,24,26,-1,-1,-1,-1,-1,28,30,32,-1,-1,34,36,-1,-1,-1,-1,-1,-1,-1,-1],"split_conditions":[1.415E1,1.205E1,-1.4633252E-1,1.12E1,4E0,1.116E1,3.0405592E1,-1.5572263E-1,8.1736984E1,1.17E1,1.41E2,3E0,9.521871E-2,9.9E1,-1.4106019E-1,2.7E1,5.2E1,-1.0264229E-1,2.684189E-1,-1.0819879E-2,-1.8196835E-1,-1.2469858E-1,8.9E1,2E0,3.8E1,8.1126615E-2,-1.7202698E-1,1.3E1,4.1E0,2.1242693E-1,-7.843414E-2,1.4477433E-1,-3.1122013E-3,1.3289832E-1,-1.3099854E-1,-3.1184338E-3,2.9873013E-1],"split_indices":[122,122,0,126,117,122,50,0,162,150,116,164,0,108,0,32,35,0,0,0,0,0,65,140,32,0,0,164,85,0,0,0,0,0,0,0,0],"split_type":[0,0,0,0,0,0,0,0,0,0,0,0,0,0,0,0,0,0,0,0,0,0,0,0,0,0,0,0,0,0,0,0,0,0,0,0,0],"sum_hessian":[2.3450732E2,2.3185495E2,2.6523776E0,2.1073553E2,2.1119406E1,1.9898839E2,1.1747159E1,3.4554882E0,1.7663918E1,1.9535423E2,3.6341448E0,1.072499E1,1.0221688E0,1.54522295E1,2.211688E0,1.8787971E2,7.474518E0,1.0476443E0,2.5865004E0,1.1077449E0,9.617245E0,1.6454324E0,1.3806797E1,2.1289892E1,1.6658983E2,1.596833E0,5.8776846E0,